1.624666114595520530e-02,-5.546089038513975222e-02,-2.357407158226748622e-02,-3.347938568177372815e-02,5.506247741439197069e-02,-2.663546170401431823e-02,3.378175595311978807e-02,1.269603040177824660e-01,7.930466739127338405e-02,-2.193638601403348487e-02,-1.814159155914220681e-02,2.785092756720084634e-02,-1.071159416638830103e-01,-5.275215511611688196e-02,3.690706898805919817e-02,-8.962430360780841362e-03
1.211023153054698737e-01,-3.730514737934817471e-02,-6.529074133262233182e-02,-5.567288131542815627e-02,2.337906399652724815e-03,-1.071221561686702857e-02,1.420960949760107506e-01,-2.366174232805826061e-02,3.652660394879199499e-03,6.063287320041798462e-02,-3.398861355567931418e-03,3.394957719142834701e-02,2.184456133297656144e-02,5.343124946585425805e-02,-8.204300497119129676e-02,4.932000948133195145e-02
-8.470046970175443626e-03,1.308436645231769377e-02,-2.393725536999119149e-02,1.036451062633585024e-01,-1.264855414944610346e-01,8.695424880221050423e-02,-3.970803784876245773e-02,9.684712359066030563e-02,7.652575720903313783e-02,6.882217009038474331e-02,5.508799028068566556e-02,1.408078971081988817e-01,-4.006150055042072278e-02,-3.522126860457958780e-02,-3.514220172930504482e-02,5.669273839487557615e-02
-8.102925938317866172e-02,6.457094976637223205e-02,-1.773862444954916670e-02,-6.676583129748599188e-02,-6.590443295342109098e-02,-5.030592223640780597e-02,-9.021944206007971589e-02,3.336796349657521893e-02,5.342323065674593058e-02,6.522637758226962346e-02,-3.583453013939674747e-02,1.849432273012732719e-02,-2.551504881714477483e-03,4.433141575831976017e-02,3.353056942697960757e-02,4.526519940964500444e-03
-1.159509130491447465e-01,-9.006592719942039041e-03,7.324885373763203276e-03,-4.339849169114426419e-02,-1.534644657769430702e-02,-8.149247409918042306e-02,-1.735729017889043116e-02,3.292115747396217457e-02,1.307188760339456635e-01,-5.792027828495312919e-02,1.760880861594590853e-03,-6.093453900211841939e-02,-8.727295818017444945e-03,-1.287833232290063953e-02,5.760369549532425720e-02,5.976477677494365648e-02
1.038681955926780420e-02,-5.640206836920291789e-03,7.462678663376007271e-02,1.133170965199583637e-02,9.623017965489481795e-02,-1.023253755811700805e-01,1.140790258469377288e-01,-3.729986219874575903e-02,-6.770017683879793469e-02,2.508850281944335469e-03,-6.963543690213065684e-02,3.464245340405946311e-02,-3.192439084827325413e-02,1.904477404540503432e-02,-5.557560642412415208e-02,-1.499820513473962801e-02
6.254831464906534036e-03,-1.017938130303489702e-02,1.000557870609615208e-01,3.673093026262703314e-02,1.418332231556596740e-02,-1.162255249085421410e-01,2.628727966957468062e-02,7.851167483358459376e-02,-4.296167794423760844e-02,-7.325894298353223533e-03,-1.860437658065793309e-01,-7.873531846846341942e-02,-1.332811634330219319e-01,7.586384537350388847e-03,-3.934453621663847218e-03,-7.669320644945566874e-03
-2.711264306071273222e-02,6.527755337522517243e-02,-7.646301472100303087e-02,-4.523209620429083366e-03,3.875074149045171223e-02,-1.131074089702543278e-02,-3.021828311619204673e-03,-5.018141540226773306e-02,-2.080216499369167901e-02,4.984206170350791165e-02,-1.231675885599443909e-01,-1.085473190910852745e-02,-3.955075488539529921e-02,-3.341084402912099759e-03,1.162203477432292020e-01,-2.899066569702286877e-02
9.326553733749745612e-02,7.034387487256371640e-02,2.462596742213074476e-03,5.565933882263613200e-03,1.284045305094715789e-02,-5.155170788040901175e-02,4.189509261048883493e-02,-3.673618991566162534e-02,2.348962321993019933e-03,-1.322664831971913924e-01,-5.085147854801786577e-02,3.237092896090935923e-02,-7.330087343033797609e-02,2.189688062103892219e-02,-2.631546348323252418e-02,6.075860500680543147e-02
7.878830854523644067e-02,1.268868157816113729e-02,-2.873543662181308805e-04,2.659816306606564099e-03,2.002699804136252198e-04,7.458329997128097799e-02,1.592626847772590226e-01,-8.172919689987194480e-02,-6.417551325052475719e-02,9.007631879338254266e-02,-6.832823774506940895e-02,-8.687951853120673418e-02,1.290865528840993703e-01,-1.611921403286092208e-02,-1.034593740552554146e-02,-3.293288556147426493e-02
3.648474010492368247e-02,-6.921973483177637498e-02,1.116008033891348616e-01,4.718707775865724208e-02,-1.687634349709270362e-03,-3.441923895730224225e-02,9.411627689071059427e-03,6.679019493957186193e-02,1.636782424238963640e-01,9.904354242940832664e-02,6.631993291297595683e-02,1.610188255290342279e-03,7.389851707714667484e-02,-2.062165033847090587e-02,2.593581181848481423e-02,7.205168878697768009e-02
3.805955538302972785e-02,-3.992105655860425650e-02,-9.505669031146191106e-02,3.145629412783676471e-02,9.985179776651078795e-03,5.817105414733629576e-02,6.310942468537910667e-03,-2.219351110972550556e-02,6.596271761953363677e-02,6.694196787007186678e-02,-1.288292711734314588e-01,-9.603754203494697939e-02,4.981410961454055611e-03,-3.032511308600759417e-03,-6.464828866849400141e-03,5.037716584272008274e-02
1.260848524434945161e-01,-6.284767526619951250e-02,-3.457924505289558699e-03,-1.506571745636599942e-03,1.442484998081197678e-02,-7.645871279924620900e-02,3.201822983725321342e-02,3.860352159841391479e-03,1.274772358873510480e-01,2.866199824902843779e-02,-4.069421431761716806e-02,-9.465345947206196819e-02,-9.252053567373064863e-03,-4.579386882342025011e-02,-2.116059731618111922e-02,2.044810696022995172e-02
1.477783729270346069e-02,1.373696302650621870e-02,8.776139530090465435e-02,2.559339216406350190e-02,1.711502398974905081e-01,1.009608178094141898e-02,-2.260061087333348206e-02,-9.210380111995881969e-02,-8.216197596537143377e-02,6.138524590242126072e-02,4.360130713223297344e-02,-6.705638855717266020e-03,-1.717395865415530590e-02,-5.449787746300812502e-02,-5.087922944708053903e-03,6.545753394505181635e-03
-1.260384500116704942e-01,4.696008647715883139e-02,-1.259977080000054261e-01,2.120077648809765014e-02,-1.270815515832498686e-03,1.836582210063768608e-02,-3.758342278226853989e-02,1.072619898480145773e-01,4.483918535042392961e-02,4.474348657652049699e-02,-8.117502008744821237e-03,-5.851200945811475991e-03,5.215769071061552437e-02,8.229775126837447774e-02,9.285588507101902311e-02,-4.089163733273162502e-03
3.622027737371415548e-03,2.233804384524301634e-02,-1.566831491622818623e-02,-4.422192208636638311e-02,1.193584983751629254e-02,2.973338513901532809e-02,3.571763104490790347e-02,-3.389314314667802707e-03,-4.121141660481763419e-02,3.628113950587595615e-02,2.807998222995377810e-02,-5.861533418409872742e-02,5.608693806267075338e-02,4.835881360873660328e-02,2.727546761508022836e-03,-7.954346056882605209e-02
-7.577071696793175049e-02,2.879233067299683674e-02,-3.211749076857670776e-02,-1.700115909932621225e-02,-6.902284728437393935e-02,5.161316818828203673e-02,-1.153924541288005312e-01,-1.719473231863414978e-03,2.214246333894264590e-02,4.326774273002226279e-02,3.308527448122931813e-02,-7.731813080515291536e-02,-2.898503913415614516e-02,-4.564105824968778952e-02,-6.807261220124612155e-02,-1.111248621514911855e-01
2.999765273499659102e-02,7.541324108007144145e-02,-3.494360974079861043e-02,4.813226074088595985e-02,3.505639927149146323e-02,-5.632691863590772591e-02,-4.236603203493682218e-03,3.872315286568068192e-03,4.614167673914669476e-02,1.202712566143303990e-02,-1.059649299494999086e-01,1.133250855641209365e-01,2.106006123247503720e-02,-6.125806467020506602e-02,-9.082939013013904828e-02,-5.563198666276191612e-02
-2.183615436646633989e-02,-4.075469788956641304e-02,-2.900676010712416666e-02,-6.349435373761885826e-02,3.621250278599729561e-02,-6.537312961978293535e-02,3.657392478137069802e-02,4.375147441161069545e-02,-9.398837135309359714e-02,-2.431449922511795189e-02,5.975413361811073715e-02,8.706846651250503902e-03,5.087973634396966705e-02,6.856760863467206701e-02,-6.503919183176197494e-02,-2.842755405856761675e-02
1.815212648729950390e-02,-1.603456832986941555e-02,2.133367167302451309e-02,9.162582815543697523e-02,-1.130684706959691338e-02,1.344375516407632191e-02,-5.462382424239851583e-03,-1.276400206358590805e-01,-5.287615465199299591e-02,-8.776267639900085099e-03,-2.648116399840387894e-02,4.782030969597833581e-02,6.354323270430592419e-02,-4.328305891753176510e-02,7.140920104251223532e-02,-3.472875833639878229e-02
1.823192499002895123e-02,-2.382241839756532240e-02,-8.423217942181997209e-02,-4.944782601680321882e-02,-1.025093373370176558e-01,5.000558366775997160e-02,8.717848479932523154e-02,5.746101709880723635e-02,-1.992751907939887407e-02,4.839286804686681459e-02,-1.196327059343423177e-01,6.278173710120160678e-02,1.122875220744611741e-01,4.229068630351261876e-02,-2.656228449241227960e-02,5.083314546615963492e-02
3.483766629738892229e-03,-6.354282566077995575e-02,-8.429339462774011749e-02,-1.431383414016568906e-02,2.840849611296946114e-03,-1.612166751255594832e-01,1.848613369386145622e-01,-2.648171318325570969e-02,8.097962121330160024e-02,6.718383385845120258e-03,8.213483552180528280e-02,1.373681375998819232e-01,-3.759883534708981234e-02,-2.072163770077545264e-02,4.266463849393831859e-02,5.989428053756169767e-02
1.357013421296086007e-02,-8.650654070422130609e-03,-8.685564678677047679e-02,5.786296098713128618e-03,-6.284994498914719951e-02,4.569140743709713596e-05,7.866210590410384340e-02,2.533089132567585208e-02,2.185606913798550724e-02,-9.179619175169298484e-02,3.283242885188100701e-02,-3.468525661902047835e-02,-1.249563392027395331e-01,8.353662560254877800e-02,-1.031555645545270856e-02,1.228136486061854292e-03
2.962989202400111155e-02,8.033206961768307730e-02,-4.647871752237702631e-02,9.152917516204651938e-02,-1.320160602691058862e-03,-5.030766198180532112e-02,9.791104242656690007e-03,-3.836263286208154571e-02,-6.317474360599747117e-03,9.939715324991878209e-02,-1.153364197288398313e-01,2.807424464826604495e-03,-4.425655112414973724e-03,-1.885459248428015752e-02,-2.341577776284656937e-02,4.126058989336567340e-02
-3.774816692172758975e-02,-1.792421703386489484e-01,-9.376170870686238723e-02,-1.895599791179263319e-02,5.803653692835430283e-02,3.461072888638147549e-02,-1.319395137017517206e-01,3.607029985054725774e-02,6.899017507362525600e-03,-2.747598715805554814e-02,-2.899303142009408349e-02,3.528895699282472848e-02,1.485891553153265675e-02,-6.230110524355064738e-02,-6.216438704659564551e-02,5.629666129471382584e-03
1.159251138221131794e-01,6.728130951675651006e-02,3.764433745003544635e-02,-6.630351221526536998e-02,-4.946073540279223579e-02,4.121950187772062402e-02,5.292625003789101085e-02,-4.909347593686464589e-02,-1.024523128825926589e-02,-4.669270743222187631e-02,-3.328335261509963311e-02,6.162280989138532727e-02,-2.101159964379637618e-02,-5.717062726530370426e-02,-8.683107730634062604e-02,-1.045388715289459654e-02
-1.924722509609741450e-02,9.189308486994461622e-02,-5.283039531251692428e-02,-5.945903060624806169e-02,4.064059335571136578e-02,1.336082592301956161e-02,2.538522926746839079e-03,1.146798897186896045e-02,-2.859495150525146259e-02,1.044523282113632955e-02,5.067573956499681065e-02,-7.128252895578668369e-02,5.223092158196657175e-02,6.769013540249134431e-02,-2.640942350421780771e-02,1.797881776679216559e-01
1.180366584948294301e-01,-1.048704182033986798e-01,6.412212190821572899e-02,4.734779671662469464e-02,-6.615897194930689396e-02,3.176843639749848264e-02,-2.655206131126755520e-02,5.716609545822801119e-02,-6.045150045486954310e-02,-5.621108523470416674e-02,1.209260335463824970e-01,1.339398099396018433e-03,4.536119468985849723e-02,6.270180570878433612e-02,-2.145009571701449007e-03,-2.729862089260989486e-02
3.206593051037247288e-02,1.133763757820929613e-01,1.024666462937929082e-02,2.700985242488167931e-02,-9.908676513037187328e-03,2.130345425751941149e-02,-2.818556528140270592e-02,2.414651982352075676e-02,6.225488364232425326e-02,9.590279528783673957e-02,6.218777793899404188e-02,2.820878119885268306e-02,1.209074989206827266e-01,-2.414380863556048976e-03,-4.550605631048794918e-03,-1.149872644238971453e-01
2.089665840323504803e-02,4.417779640590649426e-02,7.071965973128956084e-02,-6.289314599577444827e-03,1.472563611223613733e-01,5.544191447869188660e-02,-6.304524236342490262e-02,2.612339085744138159e-02,-3.704811970004215696e-05,9.000188984202367459e-02,6.538294698261001153e-03,-5.240935234419817623e-02,1.741321005342144276e-02,-3.231847061816800482e-02,-1.028129876755707744e-01,-5.345098431351311824e-02
1.007620891889544901e-02,-3.208210065763035523e-02,8.219110594558484695e-02,-8.208648050933831097e-02,-4.657353560871759640e-02,-6.275541969434415834e-02,1.370469766863522017e-02,8.758095551966335601e-02,1.724154407303948693e-03,-6.014650100719785668e-03,8.167125484044522599e-02,1.441976269008900802e-01,2.204926491140538417e-02,-1.196598836506382740e-01,-7.212927789495696129e-02,3.314383964571882696e-02
2.387163236962393936e-02,-1.315843526371544558e-01,3.268261745084525410e-02,4.043941931883714147e-02,-8.245044774756515871e-02,1.018011568927633531e-01,1.402446315657229943e-02,3.616784055315075408e-02,-3.350827718661459481e-02,1.132546539791705470e-01,1.506281611811069177e-01,1.206328632295102649e-02,9.292492320261172556e-02,-6.735246547226694802e-02,1.100231363094379168e-02,-5.846042046612352772e-02
-9.085954776362153637e-03,-5.450419398885902877e-02,-1.677006684931758168e-02,4.257955704680212172e-02,-9.944550834204460288e-02,-7.766151691102685106e-02,-2.129463985650281721e-02,4.101948408246289951e-02,1.111452808115963725e-01,-1.709583727951614548e-02,7.330925663723938295e-04,-2.867934413403304753e-02,-3.971379790576166913e-02,1.085688627622629666e-02,-2.277090029325699524e-02,4.898983565215173086e-02
-1.184980636877010392e-02,4.029501624499608886e-02,6.835244251792632619e-02,4.714131677666597020e-02,-4.428198810443545463e-02,2.797753739074940182e-02,4.764493956169172512e-02,-1.030327458662431798e-02,9.399986621056131975e-02,-3.309619845309735593e-03,-2.875056587565091512e-02,-3.889071447088419953e-02,1.566407224909704271e-02,4.726852967895269625e-02,-6.143120461122075597e-03,6.466337936691081423e-02
1.226658932281736863e-01,-4.865216023630235254e-02,4.418734120563124618e-02,8.939171109540748617e-02,-3.219692633694481998e-02,-7.696676174076140520e-02,4.072292850105714568e-02,2.782140405060846977e-02,-4.077295572880597352e-02,3.928952776138273234e-02,2.571349227065075280e-02,-1.029012263583393115e-02,3.494961525024698618e-02,-1.551904336728895592e-02,4.184756011673428783e-02,-1.570389152753033368e-01
-2.739530713055018593e-02,6.028834560481942384e-03,-7.053812499856995655e-02,-1.538155192284587115e-02,-3.621152205122008666e-02,2.685075936268866998e-03,-7.843566173768054539e-02,-8.083734571234134358e-02,-6.991405092754461592e-02,-5.789156779834777472e-02,-6.815487333543387982e-02,-6.066653749842710469e-03,1.140607414447442625e-01,5.461786669877981976e-02,-9.508740528074745291e-02,7.767479509296564000e-02
4.172269137489998531e-02,-5.776240721997332773e-03,-6.909784691724348005e-02,1.007860781178975956e-01,-5.914306667210080665e-02,-2.116225307032372840e-02,1.075847897986322299e-01,2.108284470534169466e-02,4.553393058420903555e-02,4.931807910363545690e-03,-6.670643988292876761e-03,7.175831511371608823e-03,8.095829445810473479e-02,3.656952590302853679e-03,4.674931531969672704e-02,-8.088818854722415463e-02
3.344485762403640733e-02,2.442468334577503966e-02,9.044324089695687796e-03,7.537023516646595978e-02,9.614112337939538511e-02,6.640192995618185434e-02,1.329255886392792518e-02,1.688432586216593451e-02,1.555289563992749355e-02,6.409229280352818359e-02,-5.891475758122160372e-02,-1.015900856158747229e-01,6.842319581500921899e-02,-9.261371073397593745e-02,-1.234674611845904546e-01,9.206729201170572863e-02
-3.745223156570547801e-02,-1.043372611736018141e-01,6.916683776157131480e-02,-3.745319530676183110e-03,-1.884303652405885238e-02,-1.262111204667283257e-02,6.074819735054878041e-04,2.322212797138625134e-02,-3.503178676252933360e-02,1.751483369370071541e-02,2.399059299555460559e-03,-1.514134502759064416e-01,-9.402866023875494639e-02,-6.309967932212601216e-02,-9.276226009779705087e-03,2.511223647420409225e-02
1.143854185721973615e-01,-7.554758566125817365e-02,1.733353726797236954e-02,3.245971307271300343e-02,6.431721346549576501e-02,-1.349894217406445371e-02,2.233902453377309069e-02,1.645083323543054463e-02,3.951248635456634101e-02,3.931268129811445189e-02,-1.824155936628547026e-01,-1.869754690778282352e-02,1.377865233210434116e-02,-1.018226182667982677e-01,9.554541158818519175e-02,-2.616981061551058516e-02
6.993076389406373272e-02,-6.682350956755715721e-02,-6.706451083612343170e-03,3.285078549003303192e-03,-3.134791310862813929e-02,-5.114433726435471672e-02,3.065818228857351141e-02,1.729063560029949279e-02,-2.066869229217871765e-02,6.945766043550326285e-02,3.177577503021249139e-02,-2.431642160495787325e-02,-9.552414275613778372e-02,6.283678120302577108e-02,9.120033475320289684e-03,-5.740720575995487962e-02
-1.064874330837742855e-01,1.018909622611777060e-01,1.193806421533038196e-02,-5.118935961986352534e-02,-1.492403840220340831e-02,-1.187068337620454939e-01,6.351561235404061534e-02,1.309932638288621894e-02,5.179239712717337296e-02,-1.048087408186027664e-01,2.326733926639461617e-02,-2.478574975067698513e-02,3.074844110390152416e-02,6.398126710898495960e-03,-1.598326843443444514e-02,-5.466868066006155824e-02
-3.150011520241223495e-02,-8.370452821108510799e-02,-9.666912915793685404e-03,1.218662969051317047e-01,5.584404569517860406e-02,5.989993929088065910e-02,2.329667942505019365e-02,4.184184751222186360e-02,-2.899806386711899046e-03,-5.978725780793067712e-02,-5.257243145245134308e-02,6.695223389850171736e-02,-4.094377056862016223e-02,-2.214677205601609487e-03,5.603943302943774352e-02,-2.664229826099227816e-02
2.887379382575549006e-02,-6.393151496055388128e-02,-2.062640262877160277e-02,-3.495085682620695244e-02,4.147496671679624936e-02,3.418986977050311044e-02,3.406003611429442995e-02,-2.228234086347999441e-03,3.085103040346287920e-02,-3.651769928760133233e-02,-2.385973320927869262e-02,4.232353418783395965e-02,-1.043459224142163737e-02,-5.195213724926393134e-02,4.311327638877405187e-03,8.690480412264166288e-02
-1.578278859324159025e-02,2.607867860461396403e-03,4.833902950507397434e-02,7.052183895316477269e-02,2.586151633629574231e-02,-2.298345408440720036e-02,5.631377464587076359e-02,-3.894975210538439286e-02,1.307196179258518220e-01,-4.558376461333780300e-02,5.308515023066623373e-02,-5.572261806006319207e-02,7.880258349657266737e-02,-1.492242207905564721e-01,-4.155090535684845265e-02,-1.144673842394809127e-01
-7.062151904624749954e-02,3.147102148040788888e-02,1.113443465561420598e-01,-5.036801528596769606e-02,-1.527854134560613017e-02,7.006525087117834727e-02,-1.400688870984441968e-02,1.043172676173298626e-02,-1.265325905756294611e-01,3.826808924181938215e-02,-7.229161981101524248e-02,-1.257459641172329300e-02,-5.564126711527717789e-03,-7.475297698562073656e-02,6.554943499658799633e-02,2.288694297404376271e-02
1.197960581117985500e-02,2.398412905651055652e-02,-5.951300097803999267e-02,-1.095687585382420226e-01,8.995701286642231176e-02,4.112609668850220751e-02,1.307073402623151470e-01,-9.207845665785564793e-03,-5.207135740382676931e-02,-2.492043335387846351e-02,-3.298379592693317236e-02,-7.764097689241844340e-03,-8.575312583686318935e-02,-9.048821795532929757e-02,-5.623844044889132580e-03,2.379000201218273505e-02
-1.747306857072170733e-02,6.924792856254501083e-02,4.946355074591679557e-03,-2.882858266045140033e-02,1.470606459875265122e-02,1.728305023435991461e-02,1.054987364613568096e-01,-8.439546020509874902e-02,4.995044746184509887e-02,-9.889313745218558660e-02,-1.353215922857851083e-01,-1.022180942831228539e-01,2.598402679797460688e-02,3.714417611501671240e-02,7.147235650766813053e-02,-1.192064633905110249e-01
-5.738198833455391418e-02,-6.615324702672222001e-02,-6.182249203361125933e-02,-4.801833663257504270e-02,-5.216851544501765331e-02,4.154872186217343361e-02,-1.532007711649060501e-02,-1.989122710055961363e-02,-2.551197042766239001e-02,3.249021483350533757e-02,3.481430224079983676e-02,5.902326577982405093e-02,1.800728259527573441e-02,5.682444059543999976e-02,1.187501275398235440e-01,4.497506220710516776e-03
-6.290461363066812694e-02,-9.524762662726919682e-02,-6.295332187881842734e-02,3.257514893535485168e-03,1.129452111558063854e-01,-2.846698300137483206e-02,1.194517800546771868e-01,6.136974255609497012e-03,-6.874337100394795064e-02,-4.771367843067492870e-02,-2.027817680463371228e-02,8.007936125695524305e-04,-2.602168437804806833e-02,1.419380081688508422e-03,1.033328955319335191e-01,6.694714314066531335e-02
-9.259539001970185090e-03,-1.259481504404535712e-01,1.755326046467076823e-02,1.536833890659865254e-02,6.240834837329884560e-02,-6.230177210317105628e-05,-7.890746130908408984e-02,-3.998997430775149721e-03,1.690177827710812042e-02,-7.598768315498018178e-02,-3.359052116433611235e-02,-7.113664176225976965e-02,1.102784883550251699e-01,-6.460073310904761168e-02,-3.311015200380550833e-02,1.192898049256318344e-02
-2.973055363796041003e-02,7.153613114473818084e-03,-1.460366942335440330e-02,1.019898153512080290e-02,5.194875395608774399e-02,2.108763138146522303e-02,5.193422838911514877e-02,-1.199396891931568242e-03,1.069925778702656826e-03,-3.101830672211125170e-02,-3.162673443663020778e-02,-4.291659329603728090e-02,2.861805032418253403e-02,5.971838498962929453e-02,4.271267643808046577e-02,4.467289806591394352e-02
5.802338028578277532e-03,-3.045305694684124695e-02,7.888984718822039666e-02,1.149763098110664905e-02,-1.289793707763104702e-01,-1.160258223391349638e-02,-2.596909182353187434e-02,-6.917983292671915294e-03,-1.056958569076808380e-01,2.880989827852259086e-02,-2.740743754121372638e-02,7.540971326035519895e-02,-1.191098326473852692e-01,7.377558388590196858e-02,-1.867034834531678886e-02,2.765456011257387894e-02
-5.452585249873326267e-02,2.623499822779450097e-02,-8.210763476714127984e-02,3.057560650122242638e-02,-5.056964775698917502e-02,-9.803457509289759120e-02,2.238128104270694502e-02,3.606103138807710551e-02,-1.482997217040385798e-02,4.873061514014806472e-02,1.038044773916066560e-01,6.456851195232922447e-02,-7.110546354760824417e-02,-1.304059868892233631e-01,-3.474474739698633907e-02,-7.704833813747657967e-02
7.306507615114164744e-02,-2.785957196163034444e-02,-6.715791504650506227e-02,6.682139175913812124e-02,2.052928502602785477e-02,-2.844139759155218938e-02,1.275364297226629362e-01,2.775215164790884384e-02,-8.739853328971100566e-02,-8.940545076972646055e-02,-4.982620025305396771e-02,6.566501102427087233e-02,1.000826438058223938e-01,-2.734448692625485611e-03,-3.045052423045428724e-02,4.292747735354654481e-02
8.581307501475077260e-02,-1.034432768604083147e-01,-2.274409381147359660e-02,4.084600054893648691e-02,5.992594470436838489e-02,-2.633528298617873742e-02,2.582031457578410835e-02,9.118662001737329326e-02,-1.489410356795895507e-01,4.528300288820462371e-02,9.802424251840625991e-02,-4.230334673692239672e-02,-4.860063849233352273e-02,-6.806747986804904949e-02,2.012257119744475988e-03,3.752978335507885232e-02
-5.729994271323502614e-02,4.116501751746493021e-02,8.997892529692395891e-02,7.812109452270322996e-02,1.301880441498592667e-01,2.864562712240685538e-02,1.447887168245107561e-02,7.122823643824950646e-02,-6.932436722186796629e-02,-6.236436421387314688e-02,-3.271162447558309538e-02,-7.485586476089459151e-02,4.510954210662146413e-02,1.150978225770366882e-02,-2.725265388302971006e-02,-1.260064727695222597e-01
-6.422028240145555289e-02,9.306497005948471957e-02,1.233685592903960848e-01,1.106341557242885854e-01,1.786725781139085478e-02,-7.504110401092396743e-02,-3.963804928277945422e-02,4.851072246834896989e-02,1.454892861766578227e-01,5.481481322138739842e-02,2.459407545496424766e-03,7.660141208484054325e-03,-8.020940778559307316e-02,-8.799192242010585308e-02,-3.697248549518961785e-02,-9.489900991898779156e-03
-6.538840136437627792e-02,1.086198628849701087e-01,-5.129863807726310621e-02,-1.258133151378277095e-02,-5.256927809913480854e-02,-7.255980281015753097e-02,-4.671149196819467803e-02,1.038551271650471897e-01,3.629026337736351165e-02,4.941009407715798302e-03,-1.237060205644905514e-02,7.511663185025690970e-02,1.410111133184621147e-02,-1.715723124183753112e-02,3.273224985625337868e-02,-6.155820741381434064e-02
-2.591080800351922009e-02,8.528796813555049317e-02,1.220407332521598748e-01,-6.529060473555352295e-02,-1.054735393981653599e-02,1.199176073351589621e-02,-6.347175157272276838e-03,6.472641340547005684e-02,-6.807370181421787403e-02,2.728063579838023792e-02,5.609946585203644948e-02,1.116560016668759203e-01,-8.375334051107657940e-02,-6.704068726569331269e-03,2.478656116021815681e-02,-1.389082455256385011e-02
-6.075579411983286077e-02,-8.597042127473318585e-02,5.836117056725406010e-02,3.618946162850093795e-02,7.855509871424858070e-02,-5.694869986431697756e-02,-3.138464368014864253e-02,1.095687992614066270e-01,5.715505146648473811e-02,5.440439375330069494e-02,4.176059958917145015e-02,-1.223246109526646280e-01,6.912978963384809605e-02,-1.061180730569372538e-01,-3.633560732945752270e-02,1.883998478744918631e-02
1.189696164092466334e-02,-2.590923226247084099e-02,-1.108439572983633973e-03,-6.537931109810298305e-03,3.558313724605844525e-02,2.943026427045649512e-02,1.337918352241262293e-02,2.987282527932410767e-02,1.713843379291945385e-02,2.437031040469857246e-02,3.106869829624679322e-02,-9.984000050129641576e-03,-1.054792373031711306e-02,6.474464399257671976e-02,-3.342336703349517435e-02,-7.143354670705368004e-02
3.541534389908082558e-02,3.246437817721051916e-02,6.907339784566386698e-02,5.058926923967629018e-03,1.534510812646708647e-02,-1.629766945369732351e-02,-8.844405394217723371e-02,-1.134745101992866087e-02,5.006311299679341159e-02,1.903979881173573085e-02,6.525326043492968298e-02,3.891629293114342442e-02,-1.198122752081980623e-02,1.474397762947853574e-01,1.077055884174594469e-01,-2.638778836126428121e-02
-4.322264959417614072e-03,9.633812691612807233e-02,1.240056533826823931e-01,1.125915987787116518e-01,-7.486829503846616218e-02,2.918104815256588810e-02,1.057990775553131618e-01,3.348676752018029529e-03,1.048734309295655670e-01,7.390101102109350104e-03,3.847084986400853279e-02,-2.625832061541255244e-02,-2.786210775308530646e-02,-3.917210143840055975e-02,9.224821164498280684e-03,-4.817109151007284429e-02
9.210767179566634044e-02,-1.590140382303702887e-02,2.190114150871211307e-02,-1.385649129380851427e-02,8.176305057158200773e-02,1.351955367617337089e-02,5.108177150155215201e-02,1.864689466804139717e-02,9.008473507676034719e-02,1.605202289433473300e-03,-1.068848014135534430e-01,2.652864202925776099e-02,1.689278201217755959e-02,-1.213979341501952337e-02,-1.321339407721977381e-02,-3.120620531785244043e-04
7.671325808302457624e-03,6.302518196923836968e-02,-1.297458543844464893e-02,5.209039099056552574e-02,-1.107024683065378212e-01,1.831222219381197294e-02,-8.916544045145149977e-02,4.996153808634731797e-02,1.577320400842510961e-01,-6.409038784016377055e-02,9.592559434373634786e-02,-4.652583678413092089e-02,-4.029084199716185047e-03,5.511443319799064905e-02,-4.498499490398141787e-02,5.436925419733820188e-03
-6.470566507277100698e-02,7.055022502898208869e-02,-1.883285000581596397e-02,-2.956225850112694301e-02,-2.270590539833091878e-02,-5.622764130899877977e-02,-8.852952228072571983e-03,-1.240437341195667065e-01,1.177586960299514957e-01,5.076606249891593703e-02,5.091196512608898994e-03,-1.007263792796710966e-01,3.205224051848427208e-02,2.157338915783160380e-02,-5.685703750708111237e-02,1.343348158597282510e-03
-1.576752756265813529e-02,-1.697123881432026915e-01,1.051918371093642050e-02,4.711595819111558114e-02,-7.261718241637996063e-02,-2.580810426596703844e-02,6.288453045777186133e-03,-4.928791243431451113e-02,1.181060931066650783e-02,5.600734805304205532e-02,9.308660970172044115e-04,-1.244823843949174891e-02,-6.213230689207380891e-02,-1.829349707725993687e-02,-3.580072192983010243e-02,1.166297387844605349e-01
3.613986019898078605e-02,9.472582994794806477e-02,8.929057595345361864e-02,-7.852582262051008288e-02,1.137314731350063529e-01,-5.919211016283879370e-03,3.557605641715080175e-02,-3.764141947400975741e-02,-3.290958668212992828e-03,-7.189059316371068653e-02,6.032179845214191705e-02,-3.213411303619787517e-03,1.362496006977434969e-02,-4.236668437266959825e-02,4.327838605226836180e-03,-8.527135153832623646e-03
-2.307355887475226811e-02,-8.101040536788521595e-02,5.979181337446558622e-03,7.237166518286607120e-02,-2.440854833705994459e-02,1.206185119823079965e-01,1.500975873604625324e-02,6.276190135812548254e-02,3.582215595488873888e-02,-3.576684049919946068e-02,2.886676658718726959e-02,-2.502613207728602435e-02,1.491832320949253686e-02,4.769549610259334049e-02,-4.136370599936027570e-02,7.306509018774581810e-02
-2.421967731725881492e-02,-5.905557355899399702e-02,5.052382775524427022e-03,-6.301693054022029783e-02,-6.849859062462874959e-02,-7.775296588457604463e-02,1.393848229159552754e-01,4.998271232265782960e-02,3.216642277288579016e-02,3.781485862376719742e-02,4.074252550106998577e-02,7.323682869341079094e-02,1.564489176819220187e-02,1.161721429637573542e-02,-7.093978662643181388e-02,-4.645257434101993099e-02
2.528251770304812754e-02,-8.202038698926804317e-02,5.292273936693678987e-02,-2.441886135271273232e-03,-2.022000945214915552e-02,1.020726424768262502e-01,-5.315077852407681935e-02,5.126594394485547469e-03,-2.407823628564990937e-02,1.094003556060262200e-01,-4.520710934806704273e-02,-2.632848863425291033e-03,-3.767265144915386832e-02,3.361162649215353182e-02,5.615185780380159419e-02,-9.099232422996779424e-02
-2.529711096104177159e-02,1.669068161771838227e-02,3.379148691202471522e-02,-2.187925319424954482e-02,2.720126094364385023e-03,5.150405686282620576e-02,6.219405263374618020e-02,-1.382866379969233117e-01,-7.686128208817330151e-03,-2.655082708959297447e-02,1.492118537850537809e-02,3.893777294679759415e-02,-5.130848510040681570e-02,-1.746095333974097621e-02,1.229424271654959260e-02,3.468261988262437423e-02
-4.545126639350267894e-02,-8.600925956347789305e-04,-7.281763414627939746e-02,-7.062862599751304872e-04,6.029482633470439369e-03,-7.598414278582021897e-02,6.655418451404748748e-02,3.952406117989870626e-02,-5.753377950321104245e-02,1.970364596232573179e-02,1.851097345340259326e-02,-1.144225658698008602e-01,-3.092701344396997509e-02,1.859829437506459876e-02,-9.049588260502441917e-02,-3.319888344707237066e-02
3.658701868177764716e-02,2.675973726261010599e-02,-8.123733311917312461e-02,6.837091031858862078e-02,3.512216958269924472e-02,3.774976984421938436e-02,1.457297460276469336e-01,-1.126251551754105240e-02,6.110112172921009638e-02,-9.137548761063893354e-02,4.018943198817289536e-02,1.467198366032307633e-01,4.499981632740157611e-02,-2.237594074447255346e-02,-9.474407945959976984e-02,-2.953638108747729668e-02
2.619106147352410693e-02,-1.211892497822938397e-01,1.468247686046825207e-02,-3.185216387754186834e-02,-5.078068218461408850e-02,2.057477320941921914e-02,-3.327605192559225655e-02,-3.602228780709703509e-02,-3.303340692400390244e-02,-6.362891169665832458e-02,2.195811144535392972e-02,-1.138445710419947188e-01,8.402878698805550661e-03,3.771343415620799500e-02,6.541674715310799582e-02,2.563659171706665629e-02
7.783113926770893198e-02,-7.643797852815496785e-02,-1.964433099136984884e-02,-5.040465687162818537e-02,-1.132980289157463349e-01,3.002484580767895983e-02,5.177664263304029846e-02,-2.463971306597965028e-03,7.236655807269998242e-02,-1.058145164171830389e-02,-2.428877715828394249e-02,3.277905010910397987e-02,1.909651284455579634e-02,5.980347498074842227e-02,-3.883415654955327950e-02,-9.240408162279210857e-02
-5.661129288668868831e-02,-6.256836265244228312e-02,2.339147219287059445e-02,4.641747099916288671e-02,6.385324616419152388e-02,-5.067263227215318411e-02,-2.190975437759956970e-02,-4.315920869346708683e-02,2.376172540196409139e-02,1.551925223653084079e-02,2.334528456187220241e-02,-5.151633273093117471e-02,-6.785531034446205811e-02,-1.522558134327434663e-02,-6.357780681344844809e-02,9.741666562880850477e-02
2.931447647529318579e-02,-7.518075117192020429e-02,7.088081530473605563e-02,-1.640863683844189305e-02,6.023681205976357846e-03,6.221788101249583341e-02,2.919074552383908033e-02,-3.038721461054569306e-02,2.654916044853260909e-02,-9.280389790080006973e-02,-8.196399840411530691e-02,3.492855004328582202e-02,-8.004607814296540308e-03,-5.960733554735910683e-02,9.857194384579975183e-03,2.637361236752022373e-02
-6.398574459942731052e-02,6.305567263833847247e-02,7.051917525264658759e-02,3.452208929374729618e-02,-7.195743692220325782e-02,1.251812332648616702e-02,6.535047470768948208e-02,-4.098569558986762951e-02,-4.953917824088441973e-02,-6.191465140264727773e-02,-5.284679986162514609e-02,-3.829880490334977572e-02,3.231968224059254824e-02,6.688213887274509217e-02,-7.988680276595691576e-02,3.268606334428190291e-02
4.362456709703770724e-02,4.396426629773477618e-02,6.703277097384020833e-02,-7.582989776799588244e-02,-6.435413239188124412e-02,6.207702087842512789e-02,6.599397974489630558e-02,-1.053777974508792042e-01,-5.439245959163064442e-02,5.663482716953183865e-02,9.607027912821159126e-04,5.026442845900641609e-02,3.314205311553468543e-03,4.125504093628930974e-02,-6.593403234130605639e-02,-4.757770472470300438e-02
-4.096837863563949217e-02,2.465454685718881239e-02,4.204304241960186983e-02,1.517922996428770419e-02,-2.467795587289433115e-02,1.295481598709370945e-03,-1.093161427602372393e-02,3.438397301227859217e-03,2.243116171561655367e-02,1.713046274614788908e-02,-3.922430343448701090e-03,-8.263462067306934222e-02,-5.935697223658450983e-02,-1.926105824229600721e-02,-9.108343522435854989e-02,6.277986761091752799e-02
1.615131384282908825e-02,1.133307470253512028e-01,5.860364902269218218e-02,1.869415860854254166e-02,4.313672028954831233e-02,8.118824027411199185e-02,-2.464109329822888536e-02,1.904397235815729478e-02,-3.543345872494855272e-03,1.405274401051972120e-02,1.646702929121084125e-02,1.879417334995746661e-02,5.575674047025301616e-02,1.099803151182692645e-01,-1.449848844584458209e-02,-5.936244934165050419e-02
-2.670462313392826109e-02,5.849410392352800969e-02,-4.471191704589290786e-03,-8.513165145407729228e-02,3.047716168585500388e-02,-2.109374999716296523e-02,-2.482275635188964380e-02,-1.298655826529544234e-02,-5.159600113413970179e-02,-1.409403410722404396e-02,4.193591119368753756e-02,1.246910570024709203e-01,1.026819092634294606e-01,-9.893642031488610045e-02,3.632764861726844093e-03,5.287643253728892268e-02
6.049740750762920560e-02,-2.125676083334621796e-02,-3.440088119358044455e-02,8.915310897560478620e-02,7.585333699201966817e-02,-4.130538361693034122e-02,3.308389062128613833e-02,1.791672302666750052e-02,-3.591535413303988122e-03,5.464184452738086312e-02,2.801133501045782043e-02,-7.040471182479793311e-02,-9.523541664780148241e-02,6.339967503172340424e-02,-3.077732757027427934e-02,3.938749282743686519e-02
1.787668543389088482e-02,1.471551587254780191e-01,-1.905096498995033361e-02,3.589246794660049672e-02,4.922764261944943820e-02,-5.773015761437511398e-03,1.658930226875057409e-02,-2.225456177329277266e-02,-1.863055918583210804e-02,-9.761389792910612042e-04,3.464150848025280421e-02,6.171713691278054442e-02,-7.989777584483527539e-02,5.790275875130219269e-02,3.519697162008884189e-02,5.724636780454745583e-02
-5.658419601224984330e-02,-6.451235915531047804e-02,-5.746268554846855649e-03,-4.870163263815381616e-02,-1.895966248335129514e-02,-7.862440497402201078e-03,1.039146894468827437e-01,5.658727396955928052e-02,2.266290537492919241e-02,-9.538943041987116289e-02,1.162637703233640740e-01,-1.260063730104829249e-01,-3.438531126937575261e-02,4.297442722000049953e-02,1.517559325882367749e-01,3.785343430396218012e-02
-2.501751224939575621e-02,-6.093353034840062049e-02,1.093949495302728447e-01,-2.880300677289111475e-02,1.196721059106869434e-01,4.688591587237544989e-02,1.691783103501362517e-02,4.171549941248049731e-02,7.322247414041700708e-02,4.604684748496584018e-02,-1.106960673071128720e-01,6.720596739975240319e-02,-1.486409244202801516e-01,1.109053999114248054e-02,-5.355320328624853243e-02,-4.145494060090728489e-02
-4.327157487775003947e-02,-2.833845333615350043e-02,1.098589538991038596e-02,-3.503770311535045479e-02,3.219172709871079285e-02,-3.054517689772743433e-02,-1.748357619241121541e-01,-9.428563866170730501e-02,-5.248905053963302814e-02,-4.087404517468792159e-02,-5.775096792342516300e-02,-3.869808035770144067e-02,2.177092536569800660e-02,-3.873893638965660111e-03,7.683816588556416360e-02,-2.141492308673222794e-02
-7.180190296048909182e-02,4.092617005124592373e-03,-6.010154543416299563e-04,5.693859390585761376e-02,-2.684019190681554562e-02,6.973335725046814204e-02,-8.249194667110928969e-02,-2.307756013214302612e-02,6.897088549150763928e-03,1.563658663846806407e-01,5.270307649766057395e-02,-9.161990676726336491e-02,3.666948574099011121e-02,1.031179336443889677e-01,-2.761034141929356520e-02,2.126393303495581824e-02
1.424413160234882236e-01,1.189288467665462201e-01,-4.060520992739102136e-02,-3.759453342896602879e-02,9.739735325615700434e-02,7.562390367958783666e-02,-7.083054500089086547e-02,4.331647444805734881e-02,1.025959962918590873e-01,1.729862332562890070e-01,-5.391294557096121959e-02,-4.158760012234066078e-02,1.071393855203764123e-01,-6.318378824971199181e-02,9.544545574595679613e-04,-8.231434990922201211e-03
-4.129771097981187189e-02,-4.445291110304933763e-02,-5.760110850030050744e-02,-1.621929452018772491e-02,-2.732928685525407020e-02,-4.447895233747320431e-02,-9.353330252559846625e-02,1.093540574793390868e-01,3.499942170823095583e-02,2.527829961728300309e-02,6.282814992315341462e-02,-6.048326611632735827e-02,1.241023024821157289e-04,9.689432320716129254e-02,9.714086645498248851e-02,-1.470591832190541216e-02
5.559160664442550082e-02,-7.435042545220707120e-04,3.619986121863349310e-02,1.140409314827737358e-02,-1.471841403060291098e-01,1.067520512902518509e-01,4.498306461348043628e-02,-4.284660598119038877e-02,-1.458927122336504609e-02,9.833212241805986721e-04,6.018595046274481664e-02,7.473568225383540875e-02,6.888507202615216929e-02,5.381393994532408798e-02,-6.264112736117631586e-02,4.636771662496989160e-02
2.958202334151267474e-02,-4.767434366594117123e-03,-4.980684359670133933e-03,5.844161962345695988e-02,5.175108118444831512e-02,9.744039534670799084e-04,-1.162892570454148872e-01,-1.063876773786893715e-01,-9.216062100982407024e-02,2.974754078164547778e-03,3.003720308150129026e-02,4.489931900775016166e-02,9.003861445905077254e-02,3.075003839722503102e-02,-9.232679523833496604e-02,8.942462428468389568e-02
1.368232588049304033e-01,7.173880688346828682e-02,4.444409670179195332e-02,1.050813414150050112e-01,-3.053898100729356829e-02,6.241988792067482833e-02,2.141713599725920611e-02,-7.722652925774339122e-03,-1.598232377800556103e-01,-6.960333137525233360e-02,3.413374065388805750e-02,5.764412115419623173e-02,-1.580343803426980526e-02,4.131071757410997164e-02,-1.264607198743634801e-02,-1.309717932772081275e-02
-4.238313359888608300e-02,-2.773430551327053795e-03,3.839068598550198635e-02,4.494417448377972801e-02,3.760916146961546663e-02,-3.027339639909019248e-02,-2.480250042822973108e-02,-1.695957835163006784e-03,-4.184716665328122587e-02,-2.896335622834056434e-02,1.885685565582149309e-02,-3.339321117784747189e-02,-1.247690724224114443e-02,-5.733372399447266704e-02,3.689231348789263204e-02,1.306301055285437850e-02
2.603342345810908190e-02,-3.319024499197226197e-02,7.356857569203979763e-02,1.975908310086574304e-02,2.106239774434061698e-02,4.871061595964638197e-02,1.365695320783122668e-01,-1.222915025314553344e-01,1.551546169166819616e-02,-1.782228711976386812e-02,-5.202382469275457916e-02,-1.023983129817122167e-01,1.314653110056664964e-01,4.451541532695375489e-03,9.472916242642996643e-02,5.142213589905544197e-02
-5.843057557507547878e-02,1.917132476984068773e-02,2.912689469266242087e-02,2.702768332571639856e-02,4.902587371755106477e-02,-8.777317173183743493e-02,7.055122664649682296e-02,4.232460071206171209e-02,-8.190435448186627818e-03,8.999730983391553141e-02,5.308819399349651996e-02,5.750331123437286453e-03,7.461170348238441163e-02,9.400948373924135695e-03,6.838999312303881140e-02,5.652134563742375328e-02
-1.093624688334798728e-01,1.174485662414887360e-01,6.075148713150487628e-02,4.970672774068366634e-02,-2.475164213733267726e-02,6.573826914918393105e-02,-1.346053939421942292e-01,-7.229456030210201951e-03,-1.022108574187751903e-02,5.727403509296612877e-02,-7.199710465627232048e-02,2.900379716195659440e-03,-2.665115706479620483e-03,-2.045787981569354569e-02,-4.790666195024308183e-02,1.226529634105286669e-02
-6.735852404567001239e-02,-1.547606579360152369e-02,-1.184859707462444650e-01,-7.251595048909409424e-02,-4.213706014361908586e-02,4.628966284602714643e-02,-4.434055552332695493e-02,-6.046369545882442770e-02,-2.237749940686138000e-02,6.041450140652950690e-02,1.080287541459332007e-01,1.492359207813122660e-02,-8.571149938324477968e-02,-8.655102287277806339e-02,-1.185462909059938237e-02,-1.237389027844854605e-01
1.270550204582005308e-02,3.949507812241606630e-02,-1.192036344918356028e-01,-2.839456507022837875e-02,-1.815821632074755831e-03,5.457353333742679530e-02,3.728312164238936632e-02,-6.103710428769663909e-02,9.957213852626621564e-02,-5.855731254895622101e-02,2.370619721315716383e-02,2.330297516941179370e-03,3.314471938243390703e-02,2.018479223792698021e-02,9.340255714152481681e-02,-3.041586150622867593e-02
-6.677887385450761992e-02,1.132345731182342746e-01,4.287315032435991963e-02,-7.431535453199418495e-02,-1.230425787432424256e-01,5.186052902188548891e-02,-3.514829343769404479e-02,1.443833959523776467e-01,4.080392192243766092e-02,1.942884654325135671e-02,6.516014306822880131e-02,1.049255608938289008e-01,-7.990726846368367831e-02,-6.632099429548363179e-02,-2.980425184109156481e-02,4.067287815497774850e-02
-7.405170510933310746e-02,3.741367758010765050e-03,-1.207800435695550040e-01,1.313659988703251395e-02,2.605726716232991888e-02,-5.240359173277661653e-02,5.079633674181782948e-04,4.559864198771997057e-02,-5.751688288896535106e-02,4.001021029809557344e-02,9.093199592459068337e-02,8.524730160216317798e-02,-7.146140321584443234e-02,4.219695233628473208e-03,-2.295885199598627843e-02,-6.340191972166777865e-03
5.817854915955184697e-02,-1.968731753516656802e-01,-4.769813240131725446e-02,-3.653047954937890807e-02,4.657482018242008193e-02,1.304872733657657935e-01,3.615463674044561843e-02,7.081276437400053914e-02,3.695687657746729582e-02,7.851233484561984111e-02,-1.980376652938150434e-03,1.660331258903589846e-02,9.758126957377040445e-02,8.690337391436409042e-02,1.126747073151733586e-01,-1.336808038155492921e-02
-3.719567046484613393e-02,2.065037961388574081e-02,-9.717112403022137856e-02,-1.366964840920638358e-01,3.398821244383111451e-02,4.887697078057084282e-02,-1.160395197773347181e-02,-1.080131579743890125e-01,1.116444662385229492e-01,-7.129229303459078126e-02,6.905492420251567454e-02,3.882553000304731893e-03,-9.184082128694570288e-03,8.376205057712218793e-02,2.137405404672320514e-02,1.205199529137115783e-01
-1.360624464493880303e-01,-3.397210077330861232e-03,1.980462745848926565e-02,-1.798354521322680826e-03,1.000153862647997077e-01,7.324004688720235634e-02,1.447444079970873661e-02,-6.644014938108616652e-02,3.978201910155274718e-02,2.687163450858014776e-03,-7.700301622146217551e-02,-8.103997769425581865e-02,4.998351721792446828e-02,-5.249531699512656469e-02,7.493333386534867246e-02,1.845191172394182108e-02
-4.150623785608240773e-02,-2.160092484089192952e-02,9.380464786990340420e-02,-1.616131703973991418e-01,1.423411337690602858e-02,1.692874682234683098e-02,1.198596173898317102e-01,-6.015298944284581950e-02,3.093647248129373015e-02,4.154728115626277196e-02,-5.674298605462486933e-02,-6.734959968932573149e-02,-2.906066981586007472e-02,5.715145544339798878e-02,1.032206745937563896e-02,-1.382755036823379684e-02
2.318553436785061525e-02,4.684447914533013124e-02,7.595206768976867084e-02,-3.693047752929376482e-02,-6.980133427618928459e-03,3.884457718876258014e-02,9.452256865019752208e-02,9.152816094992102802e-02,1.711191937034213517e-01,-6.521759224681829281e-02,5.040949910804671391e-02,-1.116210067482428792e-01,-1.463719763909628220e-02,4.916088931947631274e-02,5.446880594255516794e-02,-5.058089102722076319e-02
-2.442688321785930344e-02,-9.490987219031205707e-03,2.903015359771234788e-02,-7.626254730528209125e-02,8.093791689528004318e-02,-9.314820605232568274e-02,-3.296418746317783532e-02,2.918605607592804699e-02,8.462453214083327444e-03,-8.008352161905862854e-02,5.593668750570495590e-02,1.223159498023363989e-01,1.909209127300036113e-01,-4.052483226931957727e-02,1.671491039413841584e-02,6.161795846967695056e-02
-8.552116262260335555e-02,-2.206046701305586222e-03,1.117970524804852567e-01,-5.210548523388262854e-02,-6.957043742681769116e-02,3.010139388939318469e-02,-4.663090353110035946e-03,-5.640289906754143712e-02,4.503451490259137435e-03,-2.127671636083237547e-02,-1.283124675870733755e-01,-8.475617450260479468e-02,-5.896140263860748243e-02,5.709223957392486892e-02,-2.280940553615614166e-02,5.953776735903069245e-02
-5.099215956498413284e-03,-3.950307656126497702e-02,1.757355954388950623e-03,5.293613906306549738e-02,-1.698665042855501336e-02,-2.952292145098906872e-03,-5.857145542631934931e-02,-4.032610219392566975e-02,-7.078005189912399409e-02,6.043111721462040425e-02,1.999176000214023322e-02,-4.546395391579687029e-03,-5.776935323998096117e-02,7.465292797141194481e-02,4.835186652560919535e-02,6.191696441709643173e-02
8.111972407298852217e-02,-5.727030892171925541e-02,2.387728717403489031e-03,-1.828944148553924773e-02,1.067496171578843772e-01,-2.801485414793143669e-02,1.726531776300803400e-02,1.019205280110196954e-02,-8.938444886452527605e-02,-7.339178331668134991e-02,-4.049415387478971784e-02,-5.499026272263297238e-02,5.713488236031084855e-02,-7.544568108221390290e-02,3.494482218520669065e-02,6.904818893177998296e-02
-3.899501296768032726e-02,-5.788867609999030078e-03,1.184737124921119156e-01,3.045832036501151807e-02,7.259574769967862273e-02,-3.808821502581164614e-02,2.533039181312858254e-02,6.480452781715877186e-03,-1.813684035110670403e-02,-6.786399264287987232e-02,-2.622469610310977639e-02,1.793946807713361555e-02,4.548080735499757110e-02,1.564776155985310793e-02,-3.773774479272939963e-02,4.708693000239230070e-02
-2.056811848397940845e-02,7.474917421670128348e-02,4.440108500671453851e-02,1.352845892556534500e-02,5.783200542080539804e-03,1.406680689859892905e-02,2.581769997661571489e-02,1.996254286131560890e-02,-5.131543969552931905e-02,5.635131430036271344e-02,2.607541759830018374e-02,-3.114261899749474176e-05,-4.952209365951378006e-02,-5.643525428121295984e-02,2.048225528968656770e-02,-3.813358442651185436e-03
-5.569600353851096586e-02,2.558989117814579675e-02,1.442813594792896961e-02,6.479619749171132426e-02,-5.397063927438794373e-02,4.285021898730823758e-02,-4.255281829039383318e-02,9.706711752706280449e-02,5.721201603649560263e-02,-1.278638194383001532e-02,-1.675291004712864060e-02,-5.129874396236367567e-02,9.853783039982323688e-02,1.194215768695790769e-01,-1.515647816862102926e-01,7.011723599269237273e-02
-5.189725676641073621e-02,4.135597147190096107e-02,5.392661763978419138e-04,-4.054355841334754407e-02,-2.705407979856373508e-03,3.630686651884978966e-02,3.272786708182577609e-02,3.417718581996385258e-02,-1.117609082035517787e-01,9.786157685788904326e-02,4.964840647835605525e-02,1.766889070383149398e-03,-1.303544059385649580e-02,1.196492055540316068e-01,-3.397476153975231838e-02,3.507358337688393224e-02
-6.830337683447373909e-02,4.293576778007651001e-02,-1.162350957709011451e-01,-5.149667477047151914e-02,4.813962464143924785e-02,3.156950815128337778e-02,4.663676045072712856e-02,5.597293796509302671e-02,-6.090127496354083569e-02,3.953307760428190210e-02,8.102883987894206330e-02,5.346637959412275931e-02,1.294722307622230874e-02,-5.805619847369248437e-02,2.751833653363171608e-02,-5.636127097217139698e-02
4.496919811484150625e-02,-7.244615866303917573e-02,-4.971041629344465085e-02,-2.812436131246355206e-02,7.495943108678729261e-02,-8.846051721453218608e-02,-7.009068479256859441e-02,-1.491369635585273329e-02,4.508222456374499226e-02,1.639965831438025268e-01,-3.374195995477555221e-02,3.740977854708022604e-02,-5.560664688836356589e-02,-1.394016372764758094e-01,1.398058499250420068e-03,-1.036319248990667796e-01
5.039468897236116379e-02,4.839643251455820472e-02,-2.909670707546448479e-02,1.054832681704625102e-01,-6.829270721881214312e-02,-1.808794160782689966e-02,-9.084237634824723906e-02,-8.473529068450620649e-03,-2.075556945061757252e-02,6.211659046933774159e-03,-9.788635952637331217e-02,8.716816477782948769e-02,7.024667803526532528e-02,1.366063854826804480e-02,-4.443878283053584455e-02,2.965215095957056748e-02
-4.568124342723391823e-02,5.727820991014791890e-02,-1.222823743625624932e-01,3.209949062725306421e-03,-1.634566429871562102e-02,2.876217479143304903e-02,-2.656299499001700884e-02,-9.480239191653144770e-02,-1.011562996918497770e-01,1.875663911579618717e-02,-1.842064758631171972e-02,3.801143380000769623e-02,2.727900189055288555e-02,9.481426849355774344e-02,8.268621779111566539e-02,6.535107889668517744e-03
-1.029476467109296522e-01,-6.206606629088106536e-02,6.889525399334034406e-02,-2.666333079047586777e-02,-6.908241175974041970e-02,-4.043350018410679647e-02,-2.544472039852038736e-02,7.255784930197296811e-02,2.422638792072337455e-02,-7.823972897132150384e-02,8.456452513833825901e-02,-6.229429279258347912e-02,3.090224119798926430e-02,-4.202008694856236917e-03,3.501596841208539507e-02,-7.598808699380697751e-02
-8.267735863956489697e-03,-9.847140215009670544e-03,2.673380328644952772e-02,4.309948215396814525e-02,-1.123671959545416432e-01,-3.054973187088997136e-02,2.814491522944054594e-02,-8.663002002859765405e-02,-5.472248646955985701e-02,3.027982350271496426e-02,3.412158999087549355e-02,3.167517366400332719e-03,2.463976695064818735e-03,1.931046076929314112e-02,-1.163341149929518915e-03,2.276266255623001812e-03
2.197086096090604748e-02,-1.734775008746478053e-02,1.521423775758835861e-02,8.973865145402121213e-02,-1.294382776447740580e-01,4.869244760906719927e-02,-1.075357805177647869e-01,-7.072978211811344063e-02,1.025596154912267188e-01,-2.914030003780367084e-02,1.410990984960692161e-02,2.691333890595877520e-02,3.605134447344726656e-02,-9.182587841463951683e-02,-9.138874808950728408e-04,-4.246990475733648102e-02
2.794221439223884551e-02,1.056083929662434383e-02,8.079009835707830212e-02,-3.365106112220882933e-02,1.955856014024015543e-02,-4.561603698274588337e-02,3.361008173259090459e-02,6.474143942854229672e-02,-2.358940787871777189e-02,-1.152813080613079022e-01,1.684925962799296156e-02,-1.268253400408055898e-01,1.036386545777409282e-02,-2.531550492536712230e-02,2.325358256719306863e-02,6.075401795217535983e-02
-5.874986027182590304e-02,-1.076530643413114996e-01,7.371723776198257742e-03,1.178667335176547398e-01,-6.917876328978773970e-02,-8.569168129558658864e-02,-2.363075998510119971e-02,-5.433971326740527630e-02,1.132407101906811493e-02,8.783391070832665889e-03,-7.739928099540409334e-02,1.217598428181387721e-01,-7.007965852842529264e-02,-7.398152626114786606e-03,6.416130626889511579e-03,3.252003536461957334e-02
-3.755844579551179813e-02,-3.325911453111070337e-02,-7.284115508911985330e-03,8.868643003980612727e-02,-5.467915987357885831e-03,6.055217266093830542e-02,-5.728593154184528913e-02,2.360417558348382877e-02,1.351748826935720259e-02,2.338160024383574911e-02,1.393802985742982892e-01,4.158086622556805140e-02,-2.350054064851700084e-02,-8.728674653936133176e-02,5.832553858827371762e-02,5.975657649544078437e-02
-3.290443311093742274e-02,-1.222451974400579483e-01,6.666322322850315452e-02,-3.020593839412520848e-04,2.113831989323227897e-02,-7.778018569770993318e-02,1.158843071705695747e-02,1.681524912431339898e-03,3.199570192443448174e-02,-5.310659052763323090e-02,8.922570504691597348e-02,-5.581109285285187904e-02,1.507794375359594770e-02,-3.786273795802756054e-02,-2.773841564392524189e-02,-6.648212685762885932e-02
2.477571426061807996e-02,2.982810648452693253e-02,3.168230671090022273e-03,4.856399225523754665e-02,3.520198887030105694e-02,-9.840728417980330878e-03,7.360427601696664657e-02,-5.747913128671213769e-03,5.360551603856562181e-02,-1.114991241593811869e-02,-1.485837895352349475e-02,7.842814796741680305e-02,-6.290875765555271892e-02,-3.292756146859205507e-02,-1.166706027452166644e-01,-5.251417847583438742e-02
-6.216788405276396645e-02,-4.944035465945194330e-02,-1.058524187905104767e-02,-3.235461235827100795e-02,5.878700871291481223e-02,1.374045048383096268e-01,-4.160306552194383695e-02,6.131341007771617252e-02,1.163419307772388563e-02,-3.609099849819819711e-02,-1.208126910176511061e-02,-4.994485150264141304e-02,-3.981509819501501124e-02,1.259338687831258741e-01,4.254024367187585198e-02,-7.423119691983097457e-02
-3.519551508648170041e-02,2.094719953641067250e-02,-7.442691946265624081e-02,-2.638535816569989242e-02,-6.496373612082567521e-03,5.846255803287100927e-02,2.086529210414529018e-02,1.257106587445581403e-01,-1.556958923797622796e-01,-8.006347937850415153e-02,-1.169598803713054434e-02,1.057623462402495140e-03,-6.130648100667453887e-02,-6.279430919129955213e-02,4.608236710167204486e-02,1.953077131678398679e-02
5.162370480709427278e-02,8.342429665029434116e-02,-1.404751193044572431e-02,-5.339329820330547538e-02,1.541715829385930693e-02,6.067752948408424579e-02,2.765581572961182261e-02,-1.001832674161065029e-01,-2.035596392892573617e-02,-2.911764038054360723e-02,-3.770633500412931549e-02,-9.778463287443449337e-02,1.583834388476642110e-02,7.277947422518678267e-02,1.974045185967687743e-02,-5.790403252875205714e-02
6.965151473165406837e-02,-4.250516014433591838e-02,-6.808537680723971038e-03,4.669395320373764813e-02,4.740946649948376591e-03,-1.638951730416442903e-02,1.645694090053701104e-03,-5.808049027360061289e-03,-2.703933235222883216e-02,6.668856546184277756e-02,-8.820128117638761575e-03,-3.595328802465541651e-02,-1.765244303058466357e-02,6.516683953111394867e-02,-3.359993994412185936e-02,1.514985717138786839e-02
4.042909373234091636e-02,-2.297484748043648189e-02,-3.643461178561153285e-02,-4.567405130015111947e-02,-1.322706650065760652e-02,3.130281574969916679e-03,7.626257104091087313e-02,-1.846862217006493183e-03,5.966515933959695012e-02,3.152942879753587585e-02,-2.699107044183924817e-02,4.992728170236868102e-02,-3.311146278517101277e-02,1.048736592016708338e-02,1.699049994934753380e-02,9.494435758866571649e-04
-2.194698619266359160e-02,8.638823143366645974e-02,4.417987107809377006e-02,5.815914839549822524e-02,-6.480044520390546015e-02,4.067122275275936866e-02,-1.197076363949406766e-02,4.603083405131570133e-02,1.520194328362401148e-01,1.050689902231098649e-02,6.245739276357814389e-03,-1.022359402068396400e-01,7.826722843482586400e-02,-8.147309943077331307e-02,-8.199416303795868666e-02,3.893869031007676090e-02
-7.643464709439025395e-02,5.256535141697463859e-02,-5.782878449544592153e-02,-1.505454614372632796e-02,8.610815978776673041e-02,9.552924270314623947e-03,-5.822804632147633719e-02,5.012640371306772286e-02,-6.283364503359788189e-02,7.274548196541544276e-02,8.276379736098805895e-02,5.357481312569515501e-04,-4.772007524894805036e-02,3.308576112797607331e-03,-6.945509085969528429e-02,5.952285919449335633e-02
-5.545332020448053012e-02,-1.865961341141161509e-02,4.876002899340297486e-02,-4.936533697141162746e-02,7.926082058900904559e-02,-3.426289689467693078e-02,-1.153943779469748234e-03,-6.194611886132810052e-02,6.227732861289711486e-02,4.731931585694610504e-02,-1.855538436879169972e-02,-1.048751570183247342e-02,7.341987903782057345e-02,2.663580083322029252e-02,2.340096501076400701e-02,4.731205578021539099e-02
2.769898864349496295e-02,1.184442990773652490e-02,1.315717383543416746e-02,-1.157353598637477360e-01,-4.185189274246257918e-02,-1.793199606161162696e-01,4.656880105240186751e-02,-3.480675562115834176e-02,6.859539632268445153e-02,-1.106056989453258199e-01,-4.288003324390168847e-02,-3.063637113322277908e-02,4.889640447013551827e-02,2.219896151380739216e-02,8.618645886842832282e-02,5.461998641645796071e-02
-8.695449396869352199e-02,1.281447910338795459e-01,1.000984942941570144e-01,4.619064197095738844e-02,-5.840980328940672400e-03,-6.150556877928285704e-02,-1.583669038774615789e-01,-8.791232767605747234e-02,-1.556957165116645281e-01,2.020276297588211034e-02,1.000342363680155056e-01,3.403280773432106748e-02,-3.579264364849237597e-03,-2.148241209863455473e-02,8.299912545825735566e-02,-1.625984031363379712e-02
5.910834419659247857e-02,-1.322928203478394198e-03,3.410495167173568931e-02,-8.224771417144773056e-02,4.092905343216220876e-02,4.519299938620220669e-02,2.071285426256187865e-03,4.940811309470062584e-02,-4.418137092473586880e-02,-2.828094906844231832e-03,2.356200684029539569e-02,9.269543071049009264e-02,-1.540548291741500667e-02,2.903345146040724536e-02,6.875859863522221400e-03,-1.197461119623120795e-01
1.904079524730368719e-02,6.901228130926152001e-04,2.709139168311883172e-02,9.096340249596818542e-03,4.627435026879653246e-02,-8.578620405975347085e-02,-8.839353895225132707e-02,-6.510625012879098228e-02,-3.043735894000050221e-02,-2.575796369435707166e-04,1.236442959170566819e-01,8.178988530629699785e-03,-8.519193554116143152e-02,-2.488477423622997495e-02,3.465688029829067790e-02,8.245239478094770064e-03
-3.993198538864357189e-02,-6.492334100212163867e-03,2.514505282058340785e-02,-4.688333537391227261e-03,1.095557455732454610e-01,4.126601653468437575e-02,8.604398197206885451e-03,7.932943435368824958e-02,1.076669064154001931e-01,3.169055385558845750e-02,-2.385916983447556325e-04,-4.304727483382524145e-02,1.032560195567342604e-02,-1.059506398217177278e-02,4.019136284559345768e-02,-7.707210056889177152e-02
-3.915915751882607931e-02,-4.441347529201416372e-02,-5.222659999112847298e-03,-9.172078620975060437e-02,3.117165388538864143e-02,-2.674754252686949857e-02,2.746613247654403761e-02,-1.104531160729657208e-01,-6.073321490572149844e-02,8.077593427503834689e-02,-1.239863409240829321e-02,1.191074443605349142e-01,-7.831169604052055921e-02,2.216037578552322064e-03,-6.622014982736311450e-02,-5.443088209855480655e-03
-1.892663906198807644e-01,5.398417254727502779e-02,4.007489826163644631e-02,8.179272573463246265e-02,3.703739637461686551e-02,2.113745013635577943e-02,-4.091472315724988679e-02,-6.223559888395853446e-02,-1.524622215311550177e-01,1.011248741451659799e-01,-6.851901311596834965e-02,-2.402630085109914992e-02,-5.124192846548643321e-02,5.843358263769250771e-02,-3.756986310481590010e-03,-3.260947522796466685e-02
5.174562551594390214e-02,-9.866487752421286908e-03,5.665583185455900367e-02,3.559910454118544315e-02,-1.913180788371632648e-02,-2.679060371304552157e-02,4.560917980689834297e-03,-5.054269864548478763e-02,1.066760680942990987e-02,-5.204294116841863549e-02,1.913701424387803662e-02,-4.674432332293775028e-03,-4.215124703531073630e-02,-7.459667148660480140e-02,4.346950877862446744e-02,-3.038694280621491786e-02
-6.995151937222227057e-02,1.602506877797668650e-02,1.474314580946518329e-02,-3.552761304554620525e-02,8.752481884852218730e-02,1.215701656030528620e-02,3.315745387671511363e-02,-1.571798768554385356e-02,2.711386811373546826e-02,8.040779394819044801e-02,-1.478970141418193829e-01,1.152040609073655270e-01,-6.186281344164640261e-02,1.284324180628991507e-01,3.250603379838336998e-02,-6.509146623039313573e-02
-5.500194956666738105e-02,9.735417033441297330e-02,-8.702256990617433796e-02,-4.154887487127412182e-02,-4.671323233820372928e-02,2.819199598392704842e-02,-1.933327169439554363e-02,9.973074530961570372e-02,-3.005169780076979383e-03,4.386682525142011901e-02,4.871225852879157436e-02,-3.122645603153391403e-02,9.127358534744735297e-02,1.605752935391708061e-02,8.818099087451718165e-02,-1.443893731724670698e-02
6.454300336463432430e-02,-2.901006558888942488e-02,-9.353971759115108434e-03,-8.578903936736255453e-02,-3.607472652836051646e-02,-3.890779317555823763e-02,-2.064718497577732251e-02,2.811002957205492331e-03,4.759691148549489992e-02,6.520491938826381006e-03,1.868838703804362456e-02,1.211470379543242229e-02,-1.030202975807847313e-03,3.144085530139052037e-02,-5.380768751251493315e-02,2.352474137094785409e-02
-7.842765954977051757e-02,3.626336675083943056e-02,-7.530915346029811580e-03,9.006311845805083094e-02,-7.816827564752390489e-02,-1.029745900618158488e-01,6.341397139632418134e-02,3.990281890612633331e-02,3.901902697248889763e-03,7.516336644115209631e-02,5.115880116021825214e-02,-5.864547867581293428e-02,-2.433966065335571582e-02,1.994905838269090542e-02,-9.050264713220176199e-03,-3.307705967177230338e-02
6.679109893259853326e-02,-1.808615747492722803e-02,4.037334435765799895e-02,-2.209169207979169713e-02,-3.166769761951736956e-02,5.007146527479054005e-02,1.859908802059265925e-02,-5.162227824130183329e-02,5.460590186833928078e-02,7.581567480035822371e-02,-6.654194539059483937e-02,-4.282362473102693107e-02,1.504207735024054582e-01,-5.722515649276749966e-02,2.556894967605199184e-03,-9.094518244906553417e-02
5.580510066441905694e-04,-2.577583228946196334e-02,-1.900251766889859278e-02,-1.293591777119064597e-02,4.496143374700718731e-02,-8.830577327960800749e-02,-9.053611528490751459e-02,-2.417795623880354423e-03,-1.164493740835228774e-01,-1.223195567091047396e-02,-8.636808829188552528e-02,4.461640058749646170e-02,-9.298602687725912586e-02,7.128797139331286004e-02,-8.365567497194135657e-03,5.944807258678806022e-02
1.105990356083127596e-01,1.212968316831360277e-01,2.476955924072803475e-02,1.251064293668465166e-01,1.547809931683436814e-02,-2.277084939791543597e-02,-1.263070933271652051e-03,5.906327023912502638e-02,-4.762785902767759788e-02,-6.186542213606081864e-02,-7.287572546731567458e-02,3.893649137289299789e-02,-1.321480662634924239e-02,3.797696657898050332e-02,-9.335867998017838287e-02,-2.204375579748352881e-02
6.383023959668407063e-03,-6.423100445132522152e-02,2.990410361404872291e-02,-5.332596526693204192e-02,5.106178610854092415e-02,5.853345897133075543e-02,3.091145152774654042e-02,2.658846481828007480e-02,-8.193345301251130086e-02,4.402155064934801937e-03,1.230896006233705431e-01,-1.623006160659054009e-01,4.460198487887841179e-02,-1.144724865051425546e-02,1.358031702103761583e-02,5.863677116972697972e-02
6.130811556377904759e-02,4.103638160081580361e-02,6.411836808329100801e-02,6.851305247177559565e-02,3.229127303750200378e-02,2.443881595968373788e-02,-5.088453140040932743e-02,6.552997572444861640e-02,2.363233599241719093e-02,6.399049458000992396e-02,-3.848989970748268371e-03,7.151314977743485068e-02,-9.792630480081108979e-02,6.066364805825156907e-03,1.081597055425651821e-01,-5.141583107295062682e-02
-8.820829837567532861e-02,9.118787183179861977e-02,-2.788106794739123387e-02,5.216733718684946064e-02,9.953166311364700092e-02,8.499608501218140766e-02,-1.563013455322705136e-02,1.027094772940172346e-01,-9.880041160844111464e-03,1.186289571493766570e-01,1.670756561850711974e-01,-1.039742911839282857e-01,8.067793563991423889e-02,-4.183789740188659928e-02,-7.300193801464796572e-02,7.993346923676829252e-02
6.343254863874053795e-02,-1.490763652269252726e-01,-6.086608539470067525e-02,-4.116151043165790918e-02,-4.239175553255531553e-02,-3.690707304780460520e-03,-3.044766077258460185e-02,6.417401305327921635e-02,2.905995279129872100e-02,2.440324114500692920e-02,8.219469867942194585e-02,9.188087490297278115e-02,-6.393318007145545878e-02,-8.436608980391682722e-02,-7.888765101923333328e-03,8.714829763594594825e-02
-9.471066614074051537e-02,-2.199604383510849956e-02,-1.339486550272965841e-03,3.339164614439611711e-02,4.352137302491033977e-02,8.637979346821099413e-02,-8.239336718633319401e-02,2.805555018756019856e-02,5.014048563051792806e-02,-7.885607243862792146e-03,1.654904568767380513e-02,2.723870220621962823e-02,-4.369498645177900820e-02,-6.485821509523607975e-02,3.216390754756346532e-02,-6.000056060094460797e-02
2.015315313510606179e-02,-1.363224853213238635e-02,4.894631044897011091e-02,-1.835277461572587835e-03,-5.418035035746107675e-02,1.004291742040798741e-01,-1.116871861344025628e-02,6.821696112783007249e-02,-6.091636398437229490e-03,5.112473836578954045e-02,-6.228288186201472176e-02,-1.006682520128759570e-02,-4.408075242410090799e-02,-9.554726414422237690e-02,-1.060450109294101967e-01,1.031966078129894215e-01
-7.236012663325104566e-02,-6.813415015189261056e-03,8.156891320503646681e-02,4.821108222869696647e-02,7.273220718683809025e-03,-7.172651975135358252e-04,9.424599635959450550e-02,-1.580692440989186001e-02,-1.952239863969796804e-02,3.071197426761251500e-02,-1.828900813804185121e-02,6.715567747214580552e-02,-8.858432246026309853e-02,-4.761111360392665526e-02,9.939636182017873300e-02,-2.465198690255294978e-02
4.136497759964444243e-02,1.680634559709654960e-02,2.132718577335587437e-02,-6.142859423913851757e-02,2.593456570371684144e-02,4.806839636828168227e-02,8.873195864783323117e-02,2.310147925145870570e-02,1.870741356445135978e-02,-3.714040452191739311e-02,3.011049272398155438e-02,-1.278443705501646488e-01,4.187491162828294727e-02,4.510754700005796536e-02,8.438390133437261020e-02,-7.026247790369109791e-02
-4.175884591237091770e-02,-7.441375158956019253e-02,1.171964211588931853e-01,-3.212760504331842876e-02,4.587056664269822254e-02,4.908572452868221374e-04,-2.840036987150310749e-02,1.202196407525418509e-01,5.723243989154976757e-02,3.611429988676863323e-02,1.960957458584437069e-02,4.215265412054827743e-02,1.678672427976655307e-02,4.167035222957000268e-02,-3.346812188168584584e-02,-5.712372223787373637e-02
-1.390620194723841407e-01,-8.123865528861645702e-02,-4.325920643881300126e-02,5.513989925743930515e-02,7.629785942742765836e-02,4.805778599862636780e-02,5.790904486962678011e-02,-2.910697483197468433e-02,-7.474957666536086696e-03,-5.674863682104967083e-02,6.924836090447228365e-02,-1.866943519382593952e-02,4.931898868803952056e-03,1.548161701060562882e-02,1.047769854327382927e-01,1.645473058170411271e-02
6.364972991635983735e-02,4.765880899973368862e-02,-6.307691642370594209e-02,-5.656534444441133069e-02,3.712787422843305540e-02,-5.801500231507171479e-02,-5.805531863996833686e-02,7.451959850164721622e-02,1.303567850297643153e-02,-3.298107555851983314e-02,-6.031629559120552792e-02,-5.087800376046032469e-02,-7.071300992468686208e-02,5.095236346274333722e-02,-4.323659713862336440e-02,-3.812803253724486585e-02
-1.000472203709801416e-01,-3.183417404731735990e-03,1.183293625842474078e-01,-2.213384193766767746e-02,-1.064715550861518485e-02,-1.012818362015702189e-01,4.674463678586626009e-02,1.111724899402093125e-01,1.418620777603103178e-01,1.933216838053643596e-02,5.307315329261561021e-02,1.372431143260288700e-01,3.197192790450867350e-02,1.901466083494152970e-01,-2.522565809956220720e-02,-2.169682497506546931e-02
8.074815221143280541e-02,-1.446673585731834966e-01,-3.900448123122515764e-02,7.812908479620611635e-02,6.171187519177123888e-03,1.331436541904555404e-01,-1.941061716316730967e-01,-1.356781416500111859e-01,-1.212503897276827336e-01,3.394750633736783735e-02,-1.438300865683953510e-02,8.470913252720953593e-03,4.204674724639894355e-03,4.124549312600704620e-02,-9.981863497937129570e-02,8.784673108657459206e-02
-4.288054658272811431e-02,5.954382569817141813e-02,-2.669168842535995720e-02,3.150487543934177292e-02,1.296659318251515772e-02,-3.617756285491569024e-02,-4.722571027492796641e-02,6.617332664603980952e-02,2.024618953436293015e-02,6.868853297885436915e-02,-7.886935771765456529e-03,-1.424840424245726045e-01,1.083907395924784134e-01,3.764856243313889628e-02,2.199940656063841676e-02,1.069175106084304175e-02
-4.608344416624183398e-02,-5.034526796460295911e-02,8.876901882842643801e-04,1.654119801229380349e-01,-9.552460850754021515e-02,2.563288050422292061e-02,2.142447740176607607e-02,1.784957131625499946e-02,-5.358288066777851244e-02,5.092518763072240162e-02,-1.572607344901888748e-01,-4.653696570364477397e-02,-6.511790360756189444e-02,-7.689243204300556800e-02,1.219839572579980158e-01,6.453449801287396148e-02
7.801398200265222127e-02,5.505075491159809598e-02,-8.315024806385870604e-02,3.587572609858556000e-02,-2.483187803449777176e-03,9.311825631730816233e-02,-1.094578555997275347e-02,-2.456906484317204764e-02,-2.612490539752186300e-02,9.870430819933192004e-03,-8.192023414541799858e-03,7.589460798814283427e-02,4.269364328483606780e-02,8.487356950122351695e-02,9.445264390285079692e-02,5.423866325896734703e-02
4.038730861086190643e-02,1.986605586665253064e-03,-1.940319957442000059e-02,-2.729962389320532250e-03,4.431028083184267163e-02,-5.019767722335024412e-02,6.663975864972132568e-02,-1.726182439662678203e-01,-7.989663506981749264e-03,4.473043833617253162e-02,-9.334364207918584289e-02,7.599153810468913320e-03,5.831542289633568493e-02,-9.250965034183433744e-02,-6.835304797152140510e-02,1.001410145674374273e-02
-4.029428945170741155e-02,-2.483926501505913723e-02,4.851878970787459194e-02,3.628168783429432630e-03,6.650080453696391447e-02,3.506005200218307444e-02,9.974487139965744487e-03,1.292361283887417667e-01,-5.660702979904738696e-02,2.950052177596692790e-02,-1.938167616278170802e-01,5.707064130047300593e-02,-3.488834053409903962e-02,8.802647684224522429e-02,-1.142076899206790480e-01,2.596586101661003260e-02
-3.718686355939348001e-03,-7.674443204733040827e-03,5.599134191438818325e-02,-1.070398438364142564e-02,-5.817326975250079052e-02,7.503345606668637008e-03,-4.623859115526114671e-02,-4.450731318943482173e-02,-3.886947108730981482e-02,1.621551707747676679e-02,-6.372400390155023853e-02,-2.056253602844194343e-03,-1.386597764376841513e-01,4.632272558756297953e-03,6.934678308234547284e-02,1.218305189415952727e-01
-2.921794517464442256e-02,-1.125925847359807025e-01,-1.382055205176438081e-02,2.679157691942165090e-02,-6.629121765007281453e-02,-1.138992175126508632e-01,1.080969651479800342e-01,9.490979790257057791e-03,1.542682266657391388e-02,3.454839838161968824e-02,-1.270214600265482047e-03,5.504337253421204973e-02,5.178227259112925390e-02,-1.229372695509383002e-02,-8.485727407630638819e-02,-4.380678319226515710e-02
1.820732173007652555e-01,-5.452852528322799791e-02,9.548453258326977666e-02,1.857184323285076752e-02,-4.619885405698513636e-03,-1.634397829451492493e-02,-4.427371595850687624e-02,-9.710592652208878406e-02,-3.092515042889553128e-03,2.348844051919368736e-02,-1.406436764589984179e-01,5.668023319969259233e-02,3.749840841040433638e-04,6.202237084889712648e-02,-7.122857695163344049e-02,1.574116715059989749e-02
1.426678070292296523e-03,-4.968820232854077867e-02,7.620313494743329030e-02,-4.738586076016476634e-02,-5.377920823742947387e-02,-3.024037746326729403e-03,4.925239708793691801e-02,8.324495610661709899e-02,5.755609675127380115e-02,4.260945450737704462e-03,4.816157743537961833e-02,-4.977530346115160986e-02,1.235260892532462768e-01,1.002701558592755948e-01,-1.454488977753548920e-02,-1.129079167393377651e-02
-7.662121842780093839e-02,-7.784243237286356080e-03,2.334508832654925373e-03,-9.810935136126872069e-02,9.500441224056262179e-02,-4.122406966130223033e-02,1.797966891516580845e-02,-2.161321648615003622e-03,4.895818939051188590e-02,3.728022322131740226e-03,1.066636324328864155e-01,-9.290394914178636433e-04,-9.310041927281738350e-02,-7.813378106190364825e-02,-6.862827697398921067e-02,-7.448266472147332951e-02
1.320239369149732965e-02,-8.293138838480204611e-02,6.907106687328856687e-02,-5.226435810284005973e-02,1.548097037396899134e-02,-4.606032026887506292e-02,-7.633243330953262684e-02,-1.735032434707010074e-01,-3.656674585254617721e-02,-4.862521086837398240e-03,-4.172858842178034378e-02,4.969013289308624182e-02,1.679933434753189125e-02,2.232224342357493410e-02,4.204347779781113237e-02,2.563388731114156840e-02
1.160225189338323915e-01,2.973413118156321977e-02,7.998315240782800928e-02,1.012374360634800229e-04,1.383760171434852138e-01,5.165120917704745657e-02,5.564524428754894815e-03,1.565096007975692594e-01,-2.092329556786132194e-02,4.598832250560366125e-02,-6.132269851510343400e-02,-8.631829849013494815e-02,2.388028571412212017e-02,9.513837036559245897e-02,-4.763019073208774740e-02,-3.081567845053525406e-02
-1.299462030884845631e-01,-5.256845534519270086e-02,6.813005469486704303e-03,1.636419166904688055e-02,-1.814751197910273103e-02,2.116917880520468448e-02,1.534399819738708759e-01,2.730509733353283716e-02,-1.975355969336963988e-02,-4.809705232323394780e-02,-4.897429666284495997e-02,2.584517946053238244e-02,-8.381521296499976764e-03,-5.486463614059546717e-02,-3.182243469496540828e-02,-3.696576006135643411e-02
-9.111561741502892386e-02,-1.045376711160877874e-02,8.706703672570079156e-02,-4.606823925109597428e-02,9.375252595801028890e-03,3.382335896545177883e-02,1.045780700989675308e-02,-3.343024344029372347e-02,1.008958869084006782e-01,-9.857411321296515039e-02,4.718551606831278451e-03,-3.669796621354755317e-02,1.670397352431834681e-01,-2.967242916980812259e-02,1.616393119109481649e-02,-3.332403818151378344e-02
-4.854350464120154446e-02,4.186282806531108069e-02,8.016320766702222933e-02,1.245953614442734669e-01,3.529283046505404114e-02,-1.240671368023605337e-01,1.508754150449747667e-03,7.302898324232393046e-03,8.477436276673532001e-02,4.889132719094330115e-02,-8.469296535527653935e-02,-4.808077170253630822e-02,-3.718543986720096450e-02,-2.431197501230225946e-02,-1.312938441778604276e-02,-2.908006716457009130e-02
-3.270822605777996134e-02,1.247242351037366609e-01,1.611998126662990416e-01,-7.022663150926990172e-02,-2.277295057382998367e-02,-1.012857268452058146e-02,-1.126392618149807678e-01,-8.181750366944888497e-02,-3.736648478808934221e-02,-4.743703428177377390e-03,-9.465367045348309361e-02,-9.035838951820699761e-04,-1.750986713036345108e-02,-4.457987683868327479e-03,6.497095103222913504e-02,3.887656908241392262e-02
6.227627747806401687e-02,1.253269517383827532e-02,1.385742762397553819e-02,7.602660456552377821e-02,1.554261786163792583e-02,2.175327081270696239e-02,1.528188364164718427e-01,-5.934587894185680557e-02,-7.246318910101041955e-02,-1.383438062665575709e-02,6.802647923332462432e-02,-1.793322122106787153e-01,5.480262073356791108e-02,1.937961975061418957e-02,-1.385713616179427149e-02,-7.920679891575313492e-02
2.158193817264991363e-02,1.211854564715724586e-02,-3.160421994350912783e-02,7.836097555390053593e-02,2.831612113456100435e-02,-3.469462218259591196e-02,-3.738875959004094029e-02,1.628088682916604968e-02,5.617574042879098020e-03,-3.461080651578866962e-02,-5.445459604579225288e-02,3.849591203487609525e-02,-4.826795642754195398e-03,-1.114012656239198734e-01,-6.465097662915328391e-02,4.540416270101795687e-02
4.018863668408512863e-02,3.267065727368059086e-02,1.437470374124959725e-02,1.104490338996328008e-01,6.149741721378108872e-02,-1.533476145823019915e-02,8.905436876315572792e-02,5.677480342910150302e-03,1.272989965723948791e-01,-6.325353063938632392e-02,6.714551525589824987e-02,-2.743408742833239322e-02,-2.247892696276525965e-02,-2.566801546549964813e-02,4.377195128146390418e-02,5.143570982952108683e-02
1.316313312887365528e-02,-8.770501802825397819e-02,2.680760972994237698e-02,-1.318696805332012223e-01,-4.549971235147870496e-02,6.846764495951475349e-02,-2.450899954753791958e-03,-4.095778603217791608e-02,6.819546211977729755e-02,-9.832591121817500779e-02,-9.448075661674852632e-02,2.225554801182656056e-02,7.128109875248765659e-02,1.492358530216168766e-03,5.308640602012725668e-02,-3.666376778326739527e-02
1.289398267825900002e-01,7.307877510053781278e-02,4.494299476728576964e-03,8.579875308468357109e-02,-8.621346131450714767e-02,-9.250749522676305833e-03,-8.370090894352298638e-02,-6.535775786914847785e-02,-1.109838962499008416e-02,1.095030413243985867e-02,2.303592697162227393e-02,2.634780276866725834e-02,3.879116617041397652e-02,-5.323587978688107403e-02,-7.092868588716286227e-02,-2.000530902072176348e-02
-7.546995473263466703e-02,2.812164452844756468e-02,8.202572537364360983e-02,-4.505935421861771185e-03,-7.181095961178633746e-02,2.769243850632283066e-02,8.518129445810805611e-02,1.906347460194341564e-02,2.066788869633307685e-02,1.552221795620220279e-01,8.274268220294308390e-03,-2.322768902337682406e-02,5.205393695865273562e-02,1.894534989857388566e-02,2.847501069079539163e-02,-5.834956613370818196e-02
1.194157059049453552e-02,8.512840534725606492e-03,-1.518900105588634995e-02,-2.846512408345701003e-02,8.012633348600765870e-02,9.450075172364021114e-03,-3.850103992656083579e-02,8.581504093980653336e-02,-4.367187608002041921e-02,-8.367262083548715479e-02,1.156098316050067076e-01,6.774193127475465481e-02,3.857624549321225088e-02,-1.296543877255978416e-01,2.742834111303947206e-02,-4.209411224683873992e-02
-2.345622621443690589e-02,-1.119509539646281306e-03,-8.377766626942426825e-03,-9.552643020031122145e-02,-2.351265768253308491e-02,8.707268835862183587e-02,1.379862503186167662e-02,-4.414532354193542729e-02,-1.091881486602108292e-01,-4.540882219894616656e-02,4.697243588645733103e-02,7.667887055093561624e-03,-3.894827805796267830e-03,1.327908012659182943e-02,-9.297920312689544886e-02,-6.637931595823554076e-02
4.509422608060077026e-02,3.563328984378240361e-02,1.789226982407464972e-01,-1.646773209457718379e-01,-5.460064464011230717e-02,-1.405443382029918781e-02,1.186689333454071446e-02,-1.329460962291111222e-02,-1.561652048325579412e-01,5.480787798936960498e-02,-2.597485387749471492e-03,4.778857608644170724e-02,-1.464644896169674526e-01,-9.229626991755791876e-02,4.270389838151181228e-02,-9.456455243274433653e-02
9.113224281823169293e-02,-1.944266254365391647e-02,-7.242963489543195743e-02,-1.207229714258127723e-01,6.743758469261922073e-02,1.212383031588237653e-01,7.961627240187743593e-02,1.681519157782172535e-01,-1.033853163707987022e-01,3.484243109450561177e-03,1.999823400718942976e-02,-4.313229759498178606e-02,-9.334044921176433418e-02,7.371309465841081876e-02,7.237618356746305937e-02,1.388763871235271508e-01
9.280483067702827160e-02,-3.735101386258215302e-03,5.527690169996399283e-02,9.493418344692523825e-02,2.089116515497282944e-02,-5.491537132167696733e-02,-4.022333344671900901e-02,-4.028091567121239863e-02,-3.140050011515945622e-02,-7.547334018665598221e-02,1.055784033491304480e-01,-7.127437422035998171e-02,-3.990968339732037760e-03,1.238823833554464904e-01,3.573718844049656590e-02,-1.976711650704316217e-02
-8.041852616472182358e-02,-3.357835389536348303e-02,8.425274695608830910e-03,-4.390086948269651679e-02,1.792181332448352857e-02,2.656079821885816775e-02,-1.024295184605988479e-01,7.904405957315788905e-03,1.033283064216453384e-01,-7.357518070435255242e-02,2.713897169200839635e-02,4.362906193160187573e-02,-4.063345879131803617e-02,5.950075135380882702e-02,1.079257522292429855e-01,1.484444620773507813e-02
-2.458410834881310028e-02,-1.228404678238358139e-02,1.315160964097252527e-01,7.729732978940953569e-02,7.778596776975844895e-02,2.028150583996564393e-02,-3.441249490316120735e-02,5.685222761145156817e-02,-4.100569696092599969e-02,1.299785959735468184e-02,-3.584442294001474738e-02,-1.957413772070908456e-02,-7.041022387671697080e-02,-2.870922296189590620e-02,1.970496669105494675e-02,8.631350429517577194e-02
4.997691331622802074e-02,-5.887935179243382333e-02,-5.556078937888889874e-02,1.076455605835915513e-01,-2.312693919441338036e-02,1.668997910902617066e-02,6.492335963579026759e-02,3.182461885238400956e-02,-6.062582373561273968e-02,7.257141807829029954e-04,-3.595260335953700398e-02,-8.641813009327524442e-02,-2.647280071147764882e-02,4.933166360569215397e-02,-6.418787572333415486e-03,-1.170751634326526042e-01
-2.249783314667779238e-03,-4.795412290253058679e-02,1.041824436306879598e-01,-3.953589779780673774e-02,1.894982688075492680e-02,-7.544206758260958712e-02,4.146475697938762500e-02,-7.650127903636599891e-02,3.342262960917773834e-02,-4.286197040460579255e-02,7.102722445833838105e-02,9.114668474338818993e-02,-1.486059174330419362e-02,1.949195699381329333e-02,5.974041624998794459e-02,5.546227176012576837e-02
8.319821048832437907e-04,6.000504624193363223e-02,5.935793864171315382e-02,-1.570026728621802623e-03,-9.641345672942226719e-02,1.082530371721495827e-01,-2.988063088607986056e-02,6.892942762798585921e-02,-7.601611206712922952e-02,-6.690057258053991318e-02,-1.063495404783260968e-02,-3.488447832486787220e-02,8.776777015234772661e-02,-4.956270414391087537e-02,-1.502795673001914439e-02,-7.467291042760976216e-02
7.610685260415363251e-02,2.619168827867955629e-02,9.679061946798579730e-02,-2.615947635684979459e-03,-6.521135500369547311e-02,2.668306643464926284e-02,-2.035472827727871983e-02,4.941715356647098656e-02,-1.838283950295482583e-01,-7.409108919829761331e-02,-1.993025273990078547e-02,-5.897891072215859926e-02,5.702195266102607490e-02,-1.423340520194945613e-01,1.215496379245652181e-02,1.636812551731427548e-02
5.225462793313755822e-02,-4.770787572789342984e-02,9.966723054625580003e-02,1.380347619490953325e-02,5.437346201502492316e-02,-1.874757758534184235e-02,1.344139639595699764e-01,-4.937584347514213656e-02,-7.654765241914476825e-02,-1.466636252774621840e-01,3.853443957639667017e-02,3.715781459061720526e-02,-5.089842966917223349e-02,1.259836780104243818e-02,7.512585166768287470e-02,-5.191862527631076890e-02
-5.295166323153350368e-02,-2.054652838797188796e-01,-8.022839326834017848e-02,2.307416267704233415e-02,5.622035933593136359e-02,2.630436684589790991e-02,-5.071986954278718401e-02,-1.078320006947813964e-01,-4.687220637327296074e-02,-1.839926837107223184e-02,-2.121929494111223294e-02,5.964083678340423994e-02,-7.249334369625291818e-02,-5.302096597046056237e-02,-7.509418522889524383e-02,-1.022511243762948829e-01
5.101853633322080139e-02,-5.249106036151540006e-02,-7.792534497281901340e-02,-4.631888050550915514e-02,-4.148171317175108896e-02,4.081921526506356035e-02,-5.180623415460064440e-03,7.415997568226950776e-02,-2.858854979131337376e-02,1.572100543099473613e-02,2.427456780295129610e-02,-8.553189107014751158e-02,-2.189709375646918532e-02,8.111711659762406434e-02,6.488594686409555369e-03,2.150380006548001030e-02
-3.655146174497235501e-02,6.306558060898276308e-02,1.125419356142156740e-01,-4.874132762226562887e-02,-4.134701115199749394e-02,-2.842177565525603675e-02,-7.220388807981793777e-02,-1.716533845630781319e-02,3.722113813379512859e-02,-1.849525476325729056e-01,5.686906390271535827e-02,1.676778497334936550e-03,4.664362879687143637e-02,-5.430943861315566668e-02,3.641430119662730086e-02,-9.366138897625433946e-02
1.237217012701615354e-01,1.689968467649502482e-01,-8.221098313941112290e-02,-9.971581904354858555e-03,-1.152356500950719592e-01,-1.240920428603794479e-01,8.495559528199744803e-02,-7.707886568310842734e-02,3.346408654447701261e-03,-1.192275684268120917e-02,-7.821269922474537173e-02,5.346628157323396469e-02,4.187664700634980558e-02,-7.664998654176037596e-02,4.294990836871256240e-02,7.125872888160996246e-03
1.670104799265347273e-01,-6.023482910553416836e-02,1.020595519107511673e-01,-4.733691997055177597e-02,-9.698959104843069001e-02,-7.219089722874721601e-04,4.204902156385142281e-02,-4.038975358558870993e-02,-3.677474942429536514e-02,4.617670892201362898e-02,4.525058758799091474e-02,-4.281092654451448126e-02,-6.385538189143671883e-02,4.244358161357707736e-03,-6.356145706425238295e-02,3.752427801290773857e-02
1.772691607865176664e-03,-1.542347502310434208e-02,2.048585554484441684e-02,-8.044436484248024266e-02,4.333112688002515450e-02,-1.351550647112259029e-01,-1.740231932885196453e-01,-4.306136310273190465e-02,-4.760407405622556903e-02,-6.911746136192492562e-02,-3.882749422328868327e-02,-1.850882589582183296e-02,-7.590951357371589214e-02,3.081525634909977954e-02,1.996403623745593783e-02,-5.066120554265449855e-02
1.998072222461596496e-03,-1.551231429473503773e-02,3.903864929874229645e-02,-9.480911109755399413e-02,4.194548702657174138e-02,2.226517328472484014e-02,-3.803158276124980058e-02,-4.217361764797131207e-02,1.271399438147808869e-01,-3.057685852742170543e-02,6.966616722219395874e-02,2.456217389047370137e-02,1.443219838609407710e-02,4.578875926529744900e-02,1.913466325003410420e-02,-1.990869365783413600e-02
-2.900173832448271066e-02,-4.138549867130891097e-02,-7.355445171629078349e-02,-3.287739625135038812e-02,3.055029622921495713e-02,-1.242747031833454224e-01,3.506044667246848573e-02,1.207035587765679235e-01,-1.585257455803924104e-02,-8.910489349545662463e-02,7.467384940515890690e-02,9.901762277464982998e-02,4.692632705334862792e-02,-2.583390617680762780e-02,4.842669055387303911e-02,9.725249409677108603e-02
-1.209396461042860360e-01,6.981848930566533773e-02,6.389313193278949032e-02,-6.490055029196701263e-04,-9.253583935890435930e-02,5.053397063376139503e-02,6.229415855206667241e-02,-8.281808751660031664e-02,-3.115621885418329642e-03,-5.001311416078871308e-02,-8.434914279006319737e-02,1.111939034408672422e-01,-2.507647774992791470e-02,1.445424430020005035e-01,8.835446876613987921e-02,-6.337884231709317584e-02
9.395909058576872031e-02,-1.005555206846049238e-01,-4.407918523162890345e-02,-2.234099213923906868e-02,-2.901666227706757584e-02,1.604920149271270302e-02,-4.015041250642346210e-02,-6.572576487035615422e-02,2.349148737520040039e-02,4.077135082032731783e-02,3.630017129830764855e-02,5.528779806473758940e-02,9.382421313881671165e-02,-5.556404003592892160e-02,-2.062919550948097078e-02,1.093484331809701227e-01
1.748229894617405258e-02,-1.092403958566855269e-03,-6.725678417515268404e-02,-1.312760978608197293e-01,5.994061544117221946e-02,5.867574448261809322e-02,7.839826831026215637e-02,1.881443771805582990e-02,-1.721709409544011984e-02,-2.001108551731710025e-02,9.950112420136557334e-02,-5.305412162785234920e-02,6.781606839843884460e-02,1.565670963801348708e-02,5.734494091713376873e-02,-7.237214329249241906e-02
-8.126482121015898841e-02,-3.029679422010188306e-02,-4.922887147477254810e-02,-1.914464292536236173e-03,4.979445018092556324e-02,8.589653787128992413e-02,-9.709800622301283102e-02,-8.017357311709322198e-02,-1.571684574055279005e-01,-2.135706753943440381e-02,-4.122941633359172853e-02,-1.948679813723835919e-02,1.273018972924988730e-02,6.763346256944087476e-02,1.457068384935796337e-02,-2.188807181277907868e-02
-6.144268276940717532e-02,-7.287491526058019475e-02,2.392292160087375677e-02,-4.240019292588758509e-02,-5.582299827590104374e-02,-3.506132769188272102e-02,-2.838681727089740689e-02,-2.936731970635828807e-03,-1.896352062769039769e-03,1.211861183098910527e-02,3.835206003646022405e-02,-4.484548131974744334e-02,-6.496579555343133527e-02,-5.571950004484826913e-02,1.872523918380568711e-02,-4.266303968339534708e-02
-3.281911712231888687e-03,1.398708270567528477e-03,6.801886060776635157e-02,-1.331663282515568314e-01,8.685541387882073083e-02,-3.767529420514235949e-02,1.370642504131002748e-01,-4.168251810524872814e-02,-4.896319389116694787e-02,-3.093475240172417762e-02,8.485373807768432919e-02,-3.602478810293303912e-02,-6.615279161127962659e-02,-8.801989037351809486e-02,7.484019577286585290e-02,-7.680245242327994951e-03
2.424352959740806723e-02,-1.825150066462586929e-01,-6.009766323690015483e-02,-1.437934980870908715e-02,-2.832891019288202514e-02,-3.112558718243192690e-02,1.651414885065345640e-04,-4.036895122275575148e-02,1.882096327148079229e-02,6.446822352918428478e-02,2.739663236487761833e-02,4.306429103753670745e-02,-1.538024054415063901e-01,2.258661648221397741e-02,5.795251441701552292e-02,3.840232188178487049e-02
9.195020751705550166e-02,-1.687510166207513776e-02,7.333186661387744443e-02,-7.394840730358083480e-02,-2.345235069148799215e-02,1.651549993611668016e-02,-6.062128003078563754e-02,-1.654611960511907787e-02,5.043849462120280486e-02,7.312357510651366910e-02,1.063170935427077898e-02,8.453049315061622604e-02,-5.371375114254965666e-02,-3.063545755231965491e-03,1.127633099975642733e-01,2.387027872213826410e-02
4.798368026481802245e-02,-1.358140460503992446e-03,2.344831083657967705e-02,4.910475977078396920e-02,5.043150039658431116e-02,6.924314834692384124e-02,-3.637552921815312423e-02,-6.954375650064904824e-02,-5.726190501764352042e-02,2.580943290317735603e-03,-8.739354274749866480e-02,6.461611302219659458e-02,1.231878730784757153e-01,-3.732220145883267254e-02,1.358212866192364497e-02,4.720508227178959668e-03
1.032914289017847903e-02,-6.777234460918153680e-02,1.022031055572842906e-01,-2.314220703005620203e-02,3.139970374688162702e-02,3.353280231356504937e-02,-5.950254178584180736e-03,6.696687757714801792e-02,-3.181880449985687725e-02,9.430086633242419289e-03,-6.974311230280107014e-03,2.615049201730351366e-02,1.080078204378316920e-01,-5.640681722767978273e-02,-1.812905607463557653e-02,-4.522250570426485095e-02
-1.283503291281538547e-02,-4.248430864227295545e-02,4.206502707802264873e-02,9.702883568158920946e-02,-1.084650028394581328e-01,9.972438797317020875e-02,5.579215316162930427e-02,8.510571900426767630e-03,-8.444349045545619659e-02,-4.342213193365427465e-02,-6.566020038614228671e-02,2.207491434858181723e-02,-1.082328398604444526e-02,-2.001460830260617680e-03,6.676841636575508998e-02,-1.254497682431731098e-01
-1.049662638782119899e-02,-7.519948262972608877e-02,-1.080758947074271503e-01,-6.646177993515703375e-02,2.625277998955571207e-02,7.057901836279193569e-03,4.215541671384964023e-02,2.074361695756436058e-02,-2.171083893864454023e-02,-6.754859573542625062e-02,-2.520055986891880581e-02,-1.494662836354602314e-02,1.290399335892844675e-02,2.149527944001001362e-02,-5.722428428980240109e-03,3.186738867071189918e-02
-5.736212428640985461e-02,1.396807750972116346e-01,5.457622465152555530e-02,-3.710651323737453045e-02,-2.892418154084844609e-02,6.766601787368357879e-02,5.727783877010320102e-02,6.835607104154713121e-02,1.747072153301742342e-02,-5.750112946198585734e-02,-8.513534377003469100e-02,1.176556422591485372e-02,8.881160449566131987e-02,-5.995380359617694804e-02,-2.264602409992280685e-02,-7.207212040777678796e-02
3.540621857673178358e-02,-7.094926358194615645e-02,-5.538147869341308177e-02,-1.527341620092176611e-01,-8.146257760076663912e-02,-1.387490319973981416e-02,-1.696536568706027634e-02,-1.067455853569379033e-02,-5.342428629412984686e-02,1.603538928061906026e-03,1.774744622598206645e-02,8.344278775332525724e-03,-1.653091412805902938e-02,-2.123796714677836719e-02,8.599616061489255558e-02,9.311464709292596731e-02
8.640295333797078092e-02,-4.110907905064323242e-02,-7.419355309191898173e-02,3.758995846012810893e-02,6.268642010400914122e-02,7.724225397113708425e-02,6.896987771693782743e-02,-9.097326811433517624e-02,-9.311142994469802370e-02,-4.229131043791765215e-02,1.253567614789409534e-01,1.285030128640115600e-02,-1.843287487344110603e-02,-1.476479179891058632e-02,-1.027956663359226759e-02,4.614254618501186650e-02
-1.175095390068546519e-01,3.028033466137390606e-02,-3.304164628385712621e-02,6.553103376945784708e-02,-8.439598658410858711e-02,-7.640826294248544148e-02,4.424133472771985681e-02,1.619140699057570326e-02,-7.280381536298825493e-03,1.041424286285793227e-01,7.836462805214017280e-02,4.938438688324939263e-02,-1.386957695496413845e-01,-9.485973162016361759e-02,1.392917621594543798e-01,-6.050302755747740020e-03
-1.110004583068383184e-02,-5.010484142073499264e-02,2.246004244343056261e-02,2.509728697379602289e-02,6.728165880812146671e-02,-1.151084443605246699e-01,1.127228196727287149e-02,4.096019240328909600e-02,-6.300519732125655324e-03,-2.458084544555128037e-02,-7.281287804092309579e-02,2.886266001852600717e-03,7.858100422226198907e-04,7.799949258366271898e-02,-7.481413909280287475e-03,7.533678178794185609e-02
4.573602977563397121e-02,-6.051855423940383748e-03,9.822604133153614581e-02,3.851349020549730412e-02,-5.793216683208061643e-03,-1.404991415336180952e-02,-1.217402685525037359e-01,4.194167162750726124e-02,-2.765478013341823513e-02,-9.451858915782021531e-02,-7.773722607114993965e-02,-1.487017934194261558e-02,-6.138012933934116483e-02,6.349534435426630596e-02,3.921734212176315043e-02,-4.441542332506243779e-02
2.062447210474371503e-02,8.713763810072343297e-02,-7.204636195540458331e-03,-3.891130056454711154e-03,-9.118871426961036586e-02,2.949424933053170633e-02,-6.746500392224413431e-03,-1.006699975874337100e-01,-1.899206588354370590e-02,-1.248638765610441022e-02,4.272764781840323461e-02,-1.672335279116191065e-02,-3.061164983431177364e-02,-7.215256427416523455e-02,-1.953003515091961823e-02,9.184602975653611764e-03
-6.836597853646417255e-03,-6.665682957826933597e-02,-3.569288801717122178e-02,1.883686281951231847e-02,4.549604575110622467e-02,-8.110793880430969272e-03,8.613825812684380856e-02,-2.243670050196803004e-03,-1.213239961304137665e-02,-2.094516646756758652e-02,-8.858193643449643884e-02,8.514319376173777251e-03,1.352693435853607185e-01,-8.814849877574941484e-02,8.858380881420174768e-02,-1.550119710205397072e-01
-2.323330588139762773e-02,9.429323857025455682e-03,2.118103172290138753e-02,-8.843990491338919735e-02,5.066414748503147991e-02,7.949266755391461159e-03,-2.564562416269318065e-02,5.217507722454971242e-02,9.654729309509092749e-03,-4.047877932600180313e-03,2.217010816595696085e-02,-5.917164963844213921e-02,1.015246230043208159e-01,7.263602387062503829e-02,-2.330141489497750129e-02,3.130907104586421602e-02
-2.604507220520395697e-02,8.769016563628809560e-03,-3.138370824368149486e-02,-9.569817241813258213e-03,-3.766681626341935457e-02,1.742678841394377370e-02,1.206035581265842427e-01,8.449750627172893103e-02,-6.811715500421035296e-02,-8.615363390598144988e-03,-3.435166949163219463e-02,-7.868044514798003264e-02,1.475433155844089496e-02,-2.472899780298695033e-02,4.823698723895818857e-02,-1.024781406093593084e-01
9.362714040549677263e-02,4.537554284367321944e-02,-1.011979873742703366e-02,6.060225906591694411e-02,-1.877698224798968543e-02,5.844542687278330567e-02,3.599476301290729235e-02,1.012644368190530747e-01,3.985720529106834970e-02,4.604276758349438309e-02,-3.659449025379568621e-02,3.746306725383989622e-02,-1.077749894796265102e-02,-1.214661140764137538e-02,1.298383325471326281e-03,-1.906214016849534787e-02
-5.982650816052869323e-03,-9.831084301451138707e-02,5.875390480650778680e-02,-7.716012339091954386e-02,-2.708685033791440044e-02,4.781229642983592099e-02,-1.966141493454649780e-02,-9.235676603400451434e-02,5.281783702122904572e-02,4.104193642617472854e-02,1.245842462962572228e-01,-7.668221260236450509e-02,4.080694382569316492e-02,-7.396344200005272596e-02,-3.870555540560705748e-02,-1.140182429281960813e-01
1.076519231847363200e-01,-6.515464171736476406e-02,9.343546212988977639e-02,4.495627950844372292e-03,-3.260189207389593835e-02,5.576816779442275718e-02,3.180547560794881601e-02,4.980488492883043683e-02,-5.800630193895519454e-02,-4.777640669863499057e-02,1.079191319500995110e-02,-6.747066024976608803e-03,-1.150715289868791021e-02,-6.401363259314271636e-02,5.164057965204494477e-02,8.984079988104867742e-02
-7.092413524452030951e-03,-8.961523950821304041e-02,3.219590056837159930e-02,2.978510734313144157e-02,-5.416185905354002628e-02,-2.663844018161325503e-02,-4.068893301196905427e-02,6.804660737128262471e-02,1.355390946552482156e-01,8.217035391348895268e-02,4.961396714615212006e-02,-7.618343893027650082e-02,6.437666345010720605e-04,-9.107243474327250329e-03,3.486770098677614144e-02,4.631743735601390362e-03
3.527608711141015652e-03,3.083316644195805908e-02,-1.286325940224905583e-03,-1.956293971146889563e-02,4.705132625977776623e-02,-1.866099759843851263e-02,-6.046374417001105367e-02,-7.000962595018253576e-02,1.746443466277907558e-02,1.153587215168124930e-01,7.888398618400747908e-02,-3.788147177789453340e-02,2.210997197445943238e-02,-6.336467404918459667e-02,9.010852701234654816e-02,-5.170794097528765704e-02
-6.145910303964407378e-02,-4.259956994559586929e-02,-6.137571211934976512e-02,5.222582482319011038e-02,1.070485917351498700e-01,4.574742404142773111e-02,-5.173431675728059481e-02,-3.525964903157808444e-02,3.356739767017141024e-02,1.309881292972634760e-02,-6.009937201022515219e-02,-1.512651685609986245e-02,3.748305182070174862e-04,5.480011862324498523e-02,-8.786598435590525086e-03,-6.997948707806379842e-03
-2.666382064439609158e-03,2.939766479195682000e-02,6.143473018839844257e-02,-4.518467533851752704e-02,-3.826623445319526223e-02,-1.741418345056192779e-02,2.283617436273505802e-02,4.144472782461519622e-02,1.020215892826206727e-01,7.919138443172130115e-02,-1.731176706976323212e-02,-4.392071103467094090e-02,-6.842813227440314172e-02,4.020302118118363605e-02,7.584073630038436209e-02,-3.114420117341909836e-02
8.056007095006484375e-02,-1.685046032865275198e-02,1.439070454658446718e-03,5.230474583860111187e-02,-1.034089520774868487e-01,-1.489378972299128766e-02,7.932249364249761153e-03,-5.119135477084131580e-02,6.089321581332756556e-02,1.641911601045809369e-02,1.332699519716823086e-02,2.714150217161544199e-02,7.781909695511229907e-02,-1.032312113862291492e-01,5.245451743434029895e-02,-5.739014496645417768e-02
-4.180557888107254427e-02,3.381128396264865971e-02,1.360272426156242664e-01,-2.620150644461630846e-02,-8.572161808979848752e-02,7.181934354115245001e-03,1.142839959866684407e-01,-3.912027821065573036e-02,2.062001587216604707e-03,5.279935138177524467e-02,6.024078873798591194e-02,1.869386714224664445e-02,-9.146413961207315590e-02,1.346181010193665687e-03,5.388049467236005058e-02,-2.040307322464260734e-02
4.904764700194638033e-02,2.440215781399258585e-02,-2.741569090083350452e-02,-5.819329647864409510e-02,4.961483377610430593e-04,3.515720873194189827e-02,-1.241075031289790159e-01,4.919202848685066271e-02,-1.768888331931514624e-02,-2.268662193195319920e-02,9.148819825141482620e-02,1.200687172816519849e-01,2.801088667831337989e-02,-3.052482197426844776e-02,-1.266583026300289183e-01,-1.347255656093817033e-01
-1.796584017372289052e-02,-3.602965677309784287e-02,4.018764870884682788e-02,1.831995740662066899e-02,-1.710179433458607762e-02,-9.146408407063652546e-02,-1.122484951216238397e-01,1.728746911577994441e-02,-5.820616932253442483e-02,-9.609034450851047793e-02,-4.161433234621571969e-02,6.322735303980422938e-02,1.873921816353166583e-02,1.042706866094282175e-01,-1.432901187802540499e-01,1.683533900057876745e-02
2.802600590050716503e-02,-4.174952832791450387e-03,7.105300382327783826e-02,-5.653104390702816395e-03,7.344041264758600918e-02,-8.384719199566544046e-02,3.612942508640017147e-02,-7.051638680119644287e-02,5.182741250170464636e-02,-6.097315815526282989e-02,-3.677275457978516904e-02,9.640384401703634004e-03,1.111627947868551181e-01,-4.977953722720026425e-02,1.331215082574779135e-02,4.731594913823083948e-02
4.317984624841715580e-02,1.386865119547806280e-01,6.365035457726049561e-02,-8.129608052428946574e-02,-5.286373584770346322e-03,2.834623741804920532e-03,2.911770756464997917e-02,5.657335934080708062e-02,6.933519048023795150e-02,-9.602198072066888204e-03,-4.379147497183094595e-02,1.036281215959805324e-01,2.136202785477231674e-03,6.371064586869069901e-02,-1.866452832100807049e-02,-1.173428404160823946e-01
9.924640051176507674e-03,-4.601995948121886948e-02,-1.312517940854639187e-01,-9.039745307850604455e-03,-4.299077874624012557e-02,-1.604011776080682683e-02,7.883957495459874287e-02,-2.666038283268197875e-02,4.757998426697281763e-02,-1.652876235979650887e-01,6.358105470613968635e-02,-2.941239845324815708e-02,-7.221648653255753093e-03,1.497774094476643850e-02,1.215951864605250288e-01,9.453569937405303936e-02
1.240817436665932368e-02,-1.050222804667503840e-01,-1.137338409842526959e-01,-2.460116801983738138e-02,5.225794995950380772e-02,5.098464210424241694e-02,2.979491322798955011e-02,-3.458237011323486709e-02,5.919626075273180799e-02,5.471539576148354810e-03,-2.545999212405714376e-02,2.421191577412650734e-03,-4.172340840081689706e-02,-1.123427458558477615e-01,4.208460401638790260e-02,1.134715372775496611e-02
4.560490327617425926e-02,-9.894553194936824003e-03,4.853994988229384799e-02,1.142511899383906807e-02,-4.399109066540160540e-03,4.862285713202960796e-02,4.525611266147314127e-02,2.327012234051126574e-02,-1.042865383614032943e-01,3.286670036148167662e-02,-1.053136133665864005e-01,3.781169743393176380e-02,1.755677632990298304e-02,-2.620299644746880083e-02,3.112904461133695136e-02,9.919411934782856877e-02
7.686256660860830980e-02,1.132690471507930979e-01,2.043584578927007400e-02,7.834502388872276180e-02,6.331998294402361137e-03,-7.451344589764070936e-02,-3.164707435663519780e-02,1.484178083056074127e-01,-2.452425052231497343e-02,-4.841301617786401834e-02,-4.237183850061666118e-02,-7.660206167483681050e-02,-2.356557757343786044e-02,-5.225288087162460737e-02,-2.540378732984632446e-02,2.905752455191869948e-02
